duymak:0.00039987528 0.1955209 -0.059512615 -0.113120824 -0.02492363 -0.101775795 0.059552852 -0.3536896 -0.40176642 0.22533841 0.12801974 -0.20935625 -0.072964855 -0.108545475 -0.19075564 -0.03383308 -0.22107174 0.074010015 0.32792237 -0.15988237 0.014331594 0.33197156 -0.14050876 0.13070904 -0.20259705 0.24460362 -0.09473854 0.044230726 0.012535003 0.08648035 0.6132341 -0.066133276 -0.048705917 0.14604747 -0.15876801 -0.23365048 0.080892146 -0.19428976 0.04961469 -0.2451269 0.09023365 -0.24794672 -0.2847385 0.1951465 0.3558667 -0.21300153 0.41489434 -0.007771882 -0.059962668 -0.16659802 0.19020435 0.07567779 0.11688481 -0.16104525 -0.3093713 -0.3241708 0.013488834 0.43930784 -0.252856 0.2174965 -0.16978545 -0.4742737 0.08397582 0.068170734 -0.068083785 0.10728462 0.17583261 0.04465542 0.09418292 -0.04022973 -0.10141379 -0.06915757 0.039524745 -0.15682773 -0.20212473 0.49779612 0.17099786 -0.2212477 -0.12541863 0.06422337 0.039106157 0.056534342 -0.46936712 0.017322663 0.087716624 0.03220959 -0.20170853 -0.1115473 -0.050924838 0.2441941 -0.09368669 -0.20917238 -0.015890699 0.124392666 0.20138001 -0.20523153 0.18089196 -0.08725327 -0.15589388 -0.35833344 0.16466329 -0.1895441 -0.10191416 -0.04478863 -0.19386044 0.030791486 0.1789712 -0.046412095 0.21319644 0.25770897 0.26229545 0.4284191 -0.14200367 -0.05255159 0.3014143 -0.014867804 0.14233723 -0.07971544 0.020723745 -0.0913195 0.0074631264 0.051654663 0.04289312 -0.10727327 0.14528841 -0.09519115 -0.08251126 -0.12552525 0.15544961 -0.23437682 -0.3604621 0.30534706 0.08881696 -0.100364015 -0.25123814 -0.1563918 0.21265498 -0.04703028 0.1493379 0.25558 0.18799356 -0.19457598 0.21202964 -0.088717006 -0.057195947 0.067251414 0.17773578 -0.04981057 0.13350886 -0.07166013 0.11254814 0.022330197 -0.18982421 0.20188713 0.04144752 0.027605042 -0.06202593 0.012855088 -0.35991713 -0.2198478 0.00013022429 0.3066885 -0.21885195 -0.13988104 0.32642728 -0.16845627 0.20090152 -0.048750874 -0.065053746 -0.10123048 -0.24179012 0.12700006 -0.10565763 0.01572051 0.0066958503 -0.21034409 -0.08726538 -0.14315157 -0.24493478 -0.059756085 0.14744714 0.17769937 0.12930152 0.08176909 -0.29073167 -0.18250507 -0.0035286834 -0.064079545 -0.21221142 0.24054939 -0.1311915 0.24282245 -0.07244667 -0.17897674 -0.32953507 -0.15713842 0.05597857 -0.35895342 0.15525842 0.18278375
kendini:-0.19460249 0.08723577 -0.01318719 -0.2033351 0.08306696 -0.24127372 -0.10897757 -0.06658648 0.1976354 0.09609265 0.2116882 0.057517238 -0.19487408 0.18455057 -0.03414743 0.08591359 0.06442397 0.32862693 -0.17467655 0.05381303 -0.11139778 0.07073493 -0.0953735 0.10747368 0.032801155 0.1480575 0.032612637 -0.07258397 -0.058469556 0.06388106 -0.12380073 0.08746617 -0.0061627193 0.026396036 0.066048495 -0.15699285 -0.0505371 0.097755626 -0.08880156 0.0004699536 0.11988446 -0.2439199 -0.17643285 0.11087999 0.14562814 -0.042682976 0.13293968 -0.0853284 -0.13458124 -0.16499762 0.09856594 -0.20240058 0.040125333 0.16647117 -0.14531554 -0.24840446 0.01802444 -0.0026668322 0.05722371 0.02689467 0.10003365 -0.12044821 -0.14170367 0.01598078 -0.1073266 -0.0414009 -0.23832847 0.19035035 -0.09525737 0.061292727 0.04401297 0.05256661 0.0629406 0.024938142 -0.1444892 0.003033997 0.23229735 -0.124755345 0.07686912 0.13111123 0.009421221 0.043080937 -0.0007197121 0.13998471 0.055993356 0.02228575 -0.28641328 -0.007927556 0.1828342 0.17609836 -0.060741365 0.17833146 0.068730794 0.16801937 -0.19814591 0.046574667 0.0834108 0.14838266 0.061873786 -0.008335094 -0.19177634 0.017763847 0.07416405 -0.09020951 0.08243445 -0.022413788 0.018811518 -0.0027143473 0.03789561 0.024849346 0.05487433 0.15333174 0.018257158 0.048101213 -0.0017453574 -0.056714337 0.16276276 -0.19575453 -0.16877271 -0.036460005 -0.10647241 -0.001990473 0.34089527 -0.2107906 -0.06485647 -0.16072746 -0.026608866 0.029953528 -0.11231329 0.012697251 0.1957226 0.20893215 0.107749365 -0.11861684 -0.02119036 -0.10437347 -0.020967565 -0.15908925 -0.052479684 0.23767968 0.05203556 0.13134554 0.26390204 -0.04134189 0.06358798 -0.1046836 0.040697355 -0.02997477 0.04851196 -0.037006777 -0.05773259 0.020437682 -0.36143413 0.036894012 0.056894783 0.009582622 0.19047679 -0.09612048 -0.028212203 0.009828892 -0.104928516 -0.12449754 0.20147477 -0.011233885 -0.0690055 -0.21419016 0.1631598 0.13463366 -0.0091202725 -0.005463614 -0.14105587 0.0070884693 -0.00028129196 0.16441332 0.00015347361 0.0101976115 -0.26304647 0.061446324 -0.018584121 0.070475526 0.15776764 -0.024985248 0.0731507 -0.0005397291 0.08314047 -0.13980365 0.044562478 0.05652178 -0.004597001 -0.08279808 0.011322852 0.15227932 0.07551819 -0.11122978 0.06126681 -0.014726696 0.08628056 -0.024930835 0.20240092 -0.02143668
Istanbul:0.22515526 -0.60302854 0.05672372 0.51640266 -0.0031004623 0.055469267 0.093844905 -0.08528071 -0.18858485 -0.103731394 -0.23478717 0.10999001 0.044538736 -0.10024837 0.04241601 -0.21785904 0.3598339 -0.1579395 0.06736109 -0.07399177 -0.064347334 -0.18161418 0.083237946 0.28299645 0.2313305 -0.18142608 -0.22493336 -0.11294598 0.38343254 -0.04472305 0.07877184 -0.22755496 -0.08355437 -0.010665595 -0.097652644 0.15827447 0.015409737 0.100361854 0.03863465 -0.22813268 -0.4817359 -0.052576188 0.22351971 0.17927763 0.050754122 0.45358592 0.21122451 0.14243689 -0.12650728 0.077927336 0.050130665 0.12623183 -0.1642624 -0.046309937 -0.15735823 -0.076630965 -0.083859414 0.085480966 0.4038478 0.12818561 0.3562425 -0.02367057 -0.1314867 -0.07096182 0.10105277 -0.00155045 -0.19881067 -0.04181483 -0.24603327 -0.33020586 -0.13576597 0.25347334 0.0119117005 0.1857142 0.0357383 -0.02882861 -0.30084717 0.06832852 -0.12685944 0.090300396 -0.009496265 -0.19340834 -0.22230989 0.36341128 0.17456315 -0.17334384 -0.008495062 0.06288514 -0.058370564 -0.22081487 0.29065236 0.0503423 0.18347053 -0.04765876 0.012762508 0.08886424 -0.15494151 0.110022224 0.020718483 0.069144815 -0.2462486 0.04589667 0.049805533 0.19112338 -0.16307533 0.14391242 0.18213056 0.20590773 -0.3123941 -0.11251111 -0.22229967 0.112002485 0.006819838 0.002819036 0.25738594 0.08857152 0.4880052 -0.1649237 0.13382447 -0.2961675 -0.109778434 -0.059258807 -0.34058163 0.6400285 0.09575182 -0.0644202 -0.08354486 0.1834562 0.14147429 -0.029609242 -0.18196176 0.08869809 0.10046016 0.15791342 -0.12891802 -0.046718076 0.058977377 0.059526507 -0.07728482 0.28151536 0.25506175 0.20913821 0.0834155 -0.242148 -0.043910403 0.24471352 0.09013447 -0.059483793 0.12204103 -0.22186036 -0.13835298 0.03448318 0.029024027 0.4195434 0.18979186 -0.20012575 -0.17889297 0.024256658 0.054688994 -0.06786483 -0.22653462 0.23597808 0.072561726 -0.018086752 -0.104002126 -0.07944715 0.22795981 0.1413667 -0.19087672 -0.12533712 -0.14422171 -0.07223007 0.09355256 -0.2722881 -0.43097314 -0.115409955 0.025350217 -0.037241925 -0.14836235 -0.00016919342 0.17689723 0.08820507 0.2518426 -0.103705816 -0.31763083 -0.053074416 -0.05444499 -0.015808102 0.090428464 -0.0956069 0.20411862 0.09234307 0.32123363 0.32485878 0.057331324 -0.21952361 -0.2149256 0.021630438 -0.036296576 -0.08997743
İstanbul:-0.03973162 0.053483784 0.056805722 0.2733361 -0.106442355 0.15500346 0.023040535 -0.017685309 -0.19867787 0.11205922 -0.18241902 0.055288248 -0.120327495 -0.08995254 0.19507053 -0.09387749 0.04079088 0.46170655 -0.06626834 0.009616013 -0.22906752 0.13619842 0.20774132 0.2117039 -0.0016474107 -0.1986958 -0.02291453 0.18080929 0.31966212 0.17435363 0.08149867 0.035401933 0.0041112257 0.19589208 0.15072438 -0.012077433 0.41786534 0.17822506 -0.08952057 -0.17402144 -0.28159833 -0.00058271165 0.2126987 0.11563328 -0.022543557 0.17123325 -0.02521528 0.08952036 -0.10652591 -0.16638744 -0.1907169 0.2945299 0.06251895 -0.13610633 -0.086089924 0.04268145 0.15428264 -0.15529284 0.15846121 -0.15891233 0.26345742 0.2112545 -0.06317107 -0.19585618 0.3419189 0.106149375 -0.06504147 -0.068813376 -0.12543195 -0.2715878 0.093344755 -0.045452427 0.06621291 0.119135976 0.15069766 0.06335199 -0.15025152 -0.022964528 0.055869564 0.050686665 -0.0596319 -0.18818392 -0.13049075 0.29298848 0.08209411 -0.14336273 -0.073287286 0.018859638 0.029040432 0.02744518 -0.030266492 0.07982132 0.11967036 0.026826892 0.10636196 0.065741405 -0.23295946 -0.21926707 0.036169294 -0.07732089 -0.17103358 -0.02207671 0.072033 0.116135255 -0.006086373 0.20815264 0.1770784 -0.0017181333 -0.0049193944 -0.014131492 0.085218415 -0.089044966 -0.07244799 -0.0688067 0.048350275 -0.0926594 0.3795903 -0.18879771 0.048628084 -0.14143884 0.020306665 -0.16846383 -0.28581595 0.33193985 0.09727851 0.38410115 0.036710344 0.14053865 0.2266514 0.21597327 0.073977865 0.26767123 0.036867455 0.18574455 0.068511374 0.06623294 0.06256296 -0.07752034 0.09256081 0.3636129 0.11259798 0.033650953 -0.13381264 -0.26222107 -0.18417673 0.050523892 -0.081249416 -0.11610409 -0.027543535 0.035036672 -0.1536775 0.044951696 0.10606249 0.22222064 0.23971738 -0.102169074 0.040733766 -0.05065602 -0.089287154 0.21651658 -0.27154312 0.10165974 -0.0019249154 -0.008739155 0.21946499 -0.26305506 -0.2908511 -0.028755471 -0.3088614 0.005701891 -0.0062057558 -0.010357765 -0.06346157 -0.23628673 -0.03156769 0.109241836 -0.14328572 0.009409972 -0.14801082 -0.06724739 -0.00086064567 0.061920837 0.085694455 -0.0064003635 -0.21222265 -0.007210004 0.08539896 -0.06668889 0.12049991 0.1484268 -0.068443164 0.0087078735 -0.0030697552 0.18582906 -0.19775164 -0.28301144 -0.13846304 0.0051483805 0.10841289 -0.11680857
