duymak:0.00039987528 0.1955209 -0.059512615 -0.113120824 -0.02492363 -0.101775795 0.059552852 -0.3536896 -0.40176642 0.22533841 0.12801974 -0.20935625 -0.072964855 -0.108545475 -0.19075564 -0.03383308 -0.22107174 0.074010015 0.32792237 -0.15988237 0.014331594 0.33197156 -0.14050876 0.13070904 -0.20259705 0.24460362 -0.09473854 0.044230726 0.012535003 0.08648035 0.6132341 -0.066133276 -0.048705917 0.14604747 -0.15876801 -0.23365048 0.080892146 -0.19428976 0.04961469 -0.2451269 0.09023365 -0.24794672 -0.2847385 0.1951465 0.3558667 -0.21300153 0.41489434 -0.007771882 -0.059962668 -0.16659802 0.19020435 0.07567779 0.11688481 -0.16104525 -0.3093713 -0.3241708 0.013488834 0.43930784 -0.252856 0.2174965 -0.16978545 -0.4742737 0.08397582 0.068170734 -0.068083785 0.10728462 0.17583261 0.04465542 0.09418292 -0.04022973 -0.10141379 -0.06915757 0.039524745 -0.15682773 -0.20212473 0.49779612 0.17099786 -0.2212477 -0.12541863 0.06422337 0.039106157 0.056534342 -0.46936712 0.017322663 0.087716624 0.03220959 -0.20170853 -0.1115473 -0.050924838 0.2441941 -0.09368669 -0.20917238 -0.015890699 0.124392666 0.20138001 -0.20523153 0.18089196 -0.08725327 -0.15589388 -0.35833344 0.16466329 -0.1895441 -0.10191416 -0.04478863 -0.19386044 0.030791486 0.1789712 -0.046412095 0.21319644 0.25770897 0.26229545 0.4284191 -0.14200367 -0.05255159 0.3014143 -0.014867804 0.14233723 -0.07971544 0.020723745 -0.0913195 0.0074631264 0.051654663 0.04289312 -0.10727327 0.14528841 -0.09519115 -0.08251126 -0.12552525 0.15544961 -0.23437682 -0.3604621 0.30534706 0.08881696 -0.100364015 -0.25123814 -0.1563918 0.21265498 -0.04703028 0.1493379 0.25558 0.18799356 -0.19457598 0.21202964 -0.088717006 -0.057195947 0.067251414 0.17773578 -0.04981057 0.13350886 -0.07166013 0.11254814 0.022330197 -0.18982421 0.20188713 0.04144752 0.027605042 -0.06202593 0.012855088 -0.35991713 -0.2198478 0.00013022429 0.3066885 -0.21885195 -0.13988104 0.32642728 -0.16845627 0.20090152 -0.048750874 -0.065053746 -0.10123048 -0.24179012 0.12700006 -0.10565763 0.01572051 0.0066958503 -0.21034409 -0.08726538 -0.14315157 -0.24493478 -0.059756085 0.14744714 0.17769937 0.12930152 0.08176909 -0.29073167 -0.18250507 -0.0035286834 -0.064079545 -0.21221142 0.24054939 -0.1311915 0.24282245 -0.07244667 -0.17897674 -0.32953507 -0.15713842 0.05597857 -0.35895342 0.15525842 0.18278375
kendini:-0.19460249 0.08723577 -0.01318719 -0.2033351 0.08306696 -0.24127372 -0.10897757 -0.06658648 0.1976354 0.09609265 0.2116882 0.057517238 -0.19487408 0.18455057 -0.03414743 0.08591359 0.06442397 0.32862693 -0.17467655 0.05381303 -0.11139778 0.07073493 -0.0953735 0.10747368 0.032801155 0.1480575 0.032612637 -0.07258397 -0.058469556 0.06388106 -0.12380073 0.08746617 -0.0061627193 0.026396036 0.066048495 -0.15699285 -0.0505371 0.097755626 -0.08880156 0.0004699536 0.11988446 -0.2439199 -0.17643285 0.11087999 0.14562814 -0.042682976 0.13293968 -0.0853284 -0.13458124 -0.16499762 0.09856594 -0.20240058 0.040125333 0.16647117 -0.14531554 -0.24840446 0.01802444 -0.0026668322 0.05722371 0.02689467 0.10003365 -0.12044821 -0.14170367 0.01598078 -0.1073266 -0.0414009 -0.23832847 0.19035035 -0.09525737 0.061292727 0.04401297 0.05256661 0.0629406 0.024938142 -0.1444892 0.003033997 0.23229735 -0.124755345 0.07686912 0.13111123 0.009421221 0.043080937 -0.0007197121 0.13998471 0.055993356 0.02228575 -0.28641328 -0.007927556 0.1828342 0.17609836 -0.060741365 0.17833146 0.068730794 0.16801937 -0.19814591 0.046574667 0.0834108 0.14838266 0.061873786 -0.008335094 -0.19177634 0.017763847 0.07416405 -0.09020951 0.08243445 -0.022413788 0.018811518 -0.0027143473 0.03789561 0.024849346 0.05487433 0.15333174 0.018257158 0.048101213 -0.0017453574 -0.056714337 0.16276276 -0.19575453 -0.16877271 -0.036460005 -0.10647241 -0.001990473 0.34089527 -0.2107906 -0.06485647 -0.16072746 -0.026608866 0.029953528 -0.11231329 0.012697251 0.1957226 0.20893215 0.107749365 -0.11861684 -0.02119036 -0.10437347 -0.020967565 -0.15908925 -0.052479684 0.23767968 0.05203556 0.13134554 0.26390204 -0.04134189 0.06358798 -0.1046836 0.040697355 -0.02997477 0.04851196 -0.037006777 -0.05773259 0.020437682 -0.36143413 0.036894012 0.056894783 0.009582622 0.19047679 -0.09612048 -0.028212203 0.009828892 -0.104928516 -0.12449754 0.20147477 -0.011233885 -0.0690055 -0.21419016 0.1631598 0.13463366 -0.0091202725 -0.005463614 -0.14105587 0.0070884693 -0.00028129196 0.16441332 0.00015347361 0.0101976115 -0.26304647 0.061446324 -0.018584121 0.070475526 0.15776764 -0.024985248 0.0731507 -0.0005397291 0.08314047 -0.13980365 0.044562478 0.05652178 -0.004597001 -0.08279808 0.011322852 0.15227932 0.07551819 -0.11122978 0.06126681 -0.014726696 0.08628056 -0.024930835 0.20240092 -0.02143668
Istanbul:0.22515526 -0.60302854 0.05672372 0.51640266 -0.0031004623 0.055469267 0.093844905 -0.08528071 -0.18858485 -0.103731394 -0.23478717 0.10999001 0.044538736 -0.10024837 0.04241601 -0.21785904 0.3598339 -0.1579395 0.06736109 -0.07399177 -0.064347334 -0.18161418 0.083237946 0.28299645 0.2313305 -0.18142608 -0.22493336 -0.11294598 0.38343254 -0.04472305 0.07877184 -0.22755496 -0.08355437 -0.010665595 -0.097652644 0.15827447 0.015409737 0.100361854 0.03863465 -0.22813268 -0.4817359 -0.052576188 0.22351971 0.17927763 0.050754122 0.45358592 0.21122451 0.14243689 -0.12650728 0.077927336 0.050130665 0.12623183 -0.1642624 -0.046309937 -0.15735823 -0.076630965 -0.083859414 0.085480966 0.4038478 0.12818561 0.3562425 -0.02367057 -0.1314867 -0.07096182 0.10105277 -0.00155045 -0.19881067 -0.04181483 -0.24603327 -0.33020586 -0.13576597 0.25347334 0.0119117005 0.1857142 0.0357383 -0.02882861 -0.30084717 0.06832852 -0.12685944 0.090300396 -0.009496265 -0.19340834 -0.22230989 0.36341128 0.17456315 -0.17334384 -0.008495062 0.06288514 -0.058370564 -0.22081487 0.29065236 0.0503423 0.18347053 -0.04765876 0.012762508 0.08886424 -0.15494151 0.110022224 0.020718483 0.069144815 -0.2462486 0.04589667 0.049805533 0.19112338 -0.16307533 0.14391242 0.18213056 0.20590773 -0.3123941 -0.11251111 -0.22229967 0.112002485 0.006819838 0.002819036 0.25738594 0.08857152 0.4880052 -0.1649237 0.13382447 -0.2961675 -0.109778434 -0.059258807 -0.34058163 0.6400285 0.09575182 -0.0644202 -0.08354486 0.1834562 0.14147429 -0.029609242 -0.18196176 0.08869809 0.10046016 0.15791342 -0.12891802 -0.046718076 0.058977377 0.059526507 -0.07728482 0.28151536 0.25506175 0.20913821 0.0834155 -0.242148 -0.043910403 0.24471352 0.09013447 -0.059483793 0.12204103 -0.22186036 -0.13835298 0.03448318 0.029024027 0.4195434 0.18979186 -0.20012575 -0.17889297 0.024256658 0.054688994 -0.06786483 -0.22653462 0.23597808 0.072561726 -0.018086752 -0.104002126 -0.07944715 0.22795981 0.1413667 -0.19087672 -0.12533712 -0.14422171 -0.07223007 0.09355256 -0.2722881 -0.43097314 -0.115409955 0.025350217 -0.037241925 -0.14836235 -0.00016919342 0.17689723 0.08820507 0.2518426 -0.103705816 -0.31763083 -0.053074416 -0.05444499 -0.015808102 0.090428464 -0.0956069 0.20411862 0.09234307 0.32123363 0.32485878 0.057331324 -0.21952361 -0.2149256 0.021630438 -0.036296576 -0.08997743
İstanbul:-0.03973162 0.053483784 0.056805722 0.2733361 -0.106442355 0.15500346 0.023040535 -0.017685309 -0.19867787 0.11205922 -0.18241902 0.055288248 -0.120327495 -0.08995254 0.19507053 -0.09387749 0.04079088 0.46170655 -0.06626834 0.009616013 -0.22906752 0.13619842 0.20774132 0.2117039 -0.0016474107 -0.1986958 -0.02291453 0.18080929 0.31966212 0.17435363 0.08149867 0.035401933 0.0041112257 0.19589208 0.15072438 -0.012077433 0.41786534 0.17822506 -0.08952057 -0.17402144 -0.28159833 -0.00058271165 0.2126987 0.11563328 -0.022543557 0.17123325 -0.02521528 0.08952036 -0.10652591 -0.16638744 -0.1907169 0.2945299 0.06251895 -0.13610633 -0.086089924 0.04268145 0.15428264 -0.15529284 0.15846121 -0.15891233 0.26345742 0.2112545 -0.06317107 -0.19585618 0.3419189 0.106149375 -0.06504147 -0.068813376 -0.12543195 -0.2715878 0.093344755 -0.045452427 0.06621291 0.119135976 0.15069766 0.06335199 -0.15025152 -0.022964528 0.055869564 0.050686665 -0.0596319 -0.18818392 -0.13049075 0.29298848 0.08209411 -0.14336273 -0.073287286 0.018859638 0.029040432 0.02744518 -0.030266492 0.07982132 0.11967036 0.026826892 0.10636196 0.065741405 -0.23295946 -0.21926707 0.036169294 -0.07732089 -0.17103358 -0.02207671 0.072033 0.116135255 -0.006086373 0.20815264 0.1770784 -0.0017181333 -0.0049193944 -0.014131492 0.085218415 -0.089044966 -0.07244799 -0.0688067 0.048350275 -0.0926594 0.3795903 -0.18879771 0.048628084 -0.14143884 0.020306665 -0.16846383 -0.28581595 0.33193985 0.09727851 0.38410115 0.036710344 0.14053865 0.2266514 0.21597327 0.073977865 0.26767123 0.036867455 0.18574455 0.068511374 0.06623294 0.06256296 -0.07752034 0.09256081 0.3636129 0.11259798 0.033650953 -0.13381264 -0.26222107 -0.18417673 0.050523892 -0.081249416 -0.11610409 -0.027543535 0.035036672 -0.1536775 0.044951696 0.10606249 0.22222064 0.23971738 -0.102169074 0.040733766 -0.05065602 -0.089287154 0.21651658 -0.27154312 0.10165974 -0.0019249154 -0.008739155 0.21946499 -0.26305506 -0.2908511 -0.028755471 -0.3088614 0.005701891 -0.0062057558 -0.010357765 -0.06346157 -0.23628673 -0.03156769 0.109241836 -0.14328572 0.009409972 -0.14801082 -0.06724739 -0.00086064567 0.061920837 0.085694455 -0.0064003635 -0.21222265 -0.007210004 0.08539896 -0.06668889 0.12049991 0.1484268 -0.068443164 0.0087078735 -0.0030697552 0.18582906 -0.19775164 -0.28301144 -0.13846304 0.0051483805 0.10841289 -0.11680857
kadar:0.12575074 -0.32005242 -0.09062646 -0.2756619 0.036881454 -0.15691404 -0.0060497294 -0.047320023 -0.1328407 0.19323924 0.052623875 0.084281206 0.15560544 -0.025097016 0.11036996 0.038688827 0.031159557 0.08662841 0.066863075 -0.11386311 0.09145503 0.30324244 -0.027543284 -0.17105009 0.033086948 0.21409847 -0.16692348 0.015483473 -0.19277464 0.25183055 -0.1848014 -0.023889236 0.006727611 -0.048688978 -0.1544417 -0.2162576 0.14707929 -0.21368068 0.24888632 0.19943926 0.119575664 -0.31766582 -0.15158728 -0.019168071 -0.10767057 -0.15236585 -0.1692584 -0.065720394 -0.10963451 -0.02450624 -0.028814306 -0.29911146 -0.17787357 -0.110162705 0.11343979 -0.12393577 -0.058823705 0.15202022 0.09254788 0.13208775 0.0695819 -0.24464479 0.06706778 -0.08017898 0.14045726 0.22409402 0.07274071 0.12291751 0.3476574 0.21516617 0.064875335 0.09446138 -0.31683576 -0.11837453 0.07730732 0.0077536153 0.08225192 -0.0021761013 -0.043681175 -0.24918543 -0.03146995 0.28854606 -0.023858773 -0.21528001 0.044136 -0.099292114 -0.06401153 -0.15650003 0.105745606 0.09589512 -0.06327015 0.11952365 -0.12099122 -0.011492928 0.12429586 -0.12559888 -0.17026295 -0.20417167 0.007407388 -0.12933098 -0.039141353 0.088774964 -0.037805237 0.05839314 0.08624902 -0.08645079 -0.12901334 0.17382883 -0.19213815 0.098970026 0.12692992 0.37212065 0.1560962 -0.027971683 -0.119220406 0.08612587 0.0125923455 0.053534232 0.08063477 -0.07386478 -0.20786543 -0.015347811 -0.049395602 0.010893245 0.017327016 0.029389905 -0.14006254 -0.13643636 -0.09724152 0.07802029 0.13639028 0.04544371 0.23083796 -0.13832264 0.13355814 0.10722598 0.13381931 0.0329111 0.21932349 0.30227932 -0.013824036 0.22786672 0.04689121 -0.1721915 -0.19420853 0.021628097 0.080681354 0.011735209 0.32090053 -0.011402267 0.051607564 -0.21393333 0.05500977 0.210468 -0.19902124 -0.07875998 0.26882926 -0.25131676 -0.18230389 -0.14045824 -0.067069374 -0.1218106 -0.10046986 -0.0008536357 -0.08487976 0.29366443 0.01387945 -0.012777421 -0.2279931 0.13630566 -0.02033111 0.18568973 0.13793238 -0.22812374 -0.019961564 0.23487353 -0.13031694 -0.035834778 0.092806846 -0.13186109 -0.29759046 -0.036669955 0.104510106 -0.13645105 -0.17224509 -0.040272467 0.099282466 -0.026289077 0.037943617 0.08208696 -0.04376943 -0.121581964 -0.0823288 0.0805968 0.18928857 0.2577591 0.13288344 -0.0703799 0.1470564 -0.18854882
hem:0.08902132 -0.08986934 -0.09357544 -0.033692945 0.11054046 -0.07489778 -0.16229583 -0.3618059 -0.14938833 0.28833553 -0.01916438 -0.045223262 -0.025077255 0.24411866 -0.274713 -0.01585887 0.010304203 0.054237884 -0.053977404 0.16412172 -0.17237529 0.04892382 -0.00939346 0.13909419 -0.11192432 -0.0016777616 0.1726054 -0.20937198 -0.09272658 0.0019493796 -0.17400268 0.092759565 0.086405486 -0.08613098 0.03997469 0.07290782 0.15977687 0.082466595 -0.12556112 0.24429815 0.1267892 -0.13898677 -0.24953397 -0.29472274 -0.012368161 -0.18564074 0.036163073 0.047736928 -0.13697009 -0.23963733 -0.014056266 0.27078545 -0.21926297 0.08793226 -0.12399958 -0.06624628 -0.04915244 -0.06630293 -0.13913059 0.08977339 0.2496907 -0.09081027 0.009477646 0.13122547 0.062128518 0.08342869 -0.26748398 -0.096451096 -0.18754928 0.039324287 -0.07115492 -0.39843634 -0.26766366 -0.124954015 -0.06788657 -0.22840165 -0.026714586 0.12195364 0.034489527 -0.06855963 0.07333583 0.05331722 -0.08779026 -0.15214342 -0.09720107 0.1261767 -0.15003689 0.17169309 0.17288908 -0.029731566 -0.09190296 0.038626447 0.069257125 0.060773887 -0.33498904 -0.056702673 0.09001214 0.14307922 0.25470397 -0.063924626 0.22838163 0.15901104 0.018134505 0.025399132 -0.0862519 -0.018607581 -0.14827403 0.18297909 -0.045664854 -0.055899832 -0.2727134 0.026868606 0.15101334 0.1543135 0.2005031 0.37910712 0.059635304 -0.17898344 -0.025672784 0.08400453 0.16193658 0.2362527 0.093775384 0.016162677 0.0048350785 -0.057657942 -0.15991268 -0.1004969 0.029582992 -0.19345123 0.059824344 -0.13368572 0.3004745 0.05895756 -0.11018935 -0.13864517 0.017100796 -0.06814899 -0.13780971 0.23103869 -0.19422096 -0.114065126 0.058247957 -0.2308152 -0.1342203 -0.2192609 0.09865353 0.12178923 -0.0825614 -0.32704318 0.18898253 0.10683988 -0.09672173 0.2440375 -0.06057887 -0.10828115 -0.082627766 0.19350177 0.21216713 -0.3070678 -0.13499299 0.032943554 0.056265466 0.19318801 0.29269004 -0.24334414 -0.07161993 0.25888592 -0.14910151 -0.18544896 0.020282395 0.09043265 0.12721327 0.38998556 -0.22913626 0.25029504 -0.07311604 0.14641078 0.29137266 0.21555187 0.4411535 -0.13003047 -0.011169436 0.30153257 0.05143267 0.13830584 0.2835911 0.047215164 0.06338058 -0.21162802 -0.3343123 0.28169972 0.2130734 0.14307366 0.1713221 0.3113985 0.05863877 -0.144967 0.062835015 -0.117891654
10da:0.38276646 -0.1467974 -0.0995957 0.070294335 0.06431159 0.006372897 -0.0035572548 0.15411966 -0.039252065 -0.10389231 0.14898838 -0.030596169 0.07577207 0.08651818 -0.03368459 0.039993137 0.08308392 0.033358954 0.04538783 -0.025726723 -0.07783343 0.050825078 -0.20584257 0.2231925 0.048702683 -0.0036111134 -0.043130815 -0.02586452 -0.032996632 -0.03193598 -0.17951648 -0.2416938 -0.023828873 0.078151196 -0.028361665 -0.08064234 0.0036429083 -0.07908011 0.06320147 -0.1902116 0.026434015 0.01502106 -0.08065826 -0.10562111 0.035899885 0.00019942544 -0.0034500551 -0.16110058 0.19740197 -0.0036627017 0.13844016 -0.16192308 -0.30026072 0.029761847 -0.068753935 -0.18957272 0.020229502 0.010150664 0.22283582 0.16961725 0.08556994 0.007836722 0.07687269 -0.1171343 -0.13878316 -0.047102503 -0.061391823 0.0019234237 0.16042207 -0.06394895 0.030789638 -0.13770993 -0.058168497 -0.08251412 -0.046159238 0.14733477 0.07102194 0.09090643 -0.105913915 -0.021129271 -0.010846597 0.017978502 0.06371746 0.028361434 0.11710748 -0.15479344 0.076878786 -0.05722274 -0.11518057 0.10999682 0.060887825 -0.07473159 -0.12754759 -0.024151072 0.07524653 -0.0793204 -0.12395207 0.26626512 0.17215897 -0.088481985 0.107009746 -0.040652443 -0.044771623 -0.061643157 -0.019065129 -0.037484784 -0.14178279 0.1590131 -0.021790097 0.29137146 0.0038473275 0.13344723 0.055476367 -0.019024007 0.03234166 -0.17633395 -0.015628453 -0.06925224 -0.06505968 0.20588589 0.21582603 0.051160276 0.026682034 0.19571485 0.17685851 -0.14223751 -0.09006856 0.08795281 0.022911275 0.027210616 0.05446233 -0.106995806 0.11352749 0.30384183 -0.051865254 0.11280597 -0.21919373 0.022639968 -0.07348831 0.11380905 -0.016285328 0.06419617 -0.020411836 -0.24718595 0.10802364 0.33581877 0.006466817 0.10026919 0.09738625 -0.099268556 0.05088944 -0.06119835 0.037744135 0.105827756 -0.009266834 -0.12172653 -0.03612039 -0.033647947 -0.08306256 -0.052473318 -0.20330109 -0.07770462 -0.11048812 -0.054560468 -0.04247316 0.08079234 -0.22705534 0.08244893 -0.117095016 -0.08024471 -0.018037826 0.033714987 0.0126339765 -0.18278848 -0.042172533 0.26070157 -0.009775357 0.05119317 0.043863736 0.06621471 0.098767705 -0.062545374 -0.117979385 0.15582985 -0.06659349 -0.0972574 -0.0012434125 0.08816685 -0.1733893 -0.008730195 0.03538758 0.035869468 -0.08508922 -0.15004693 0.053747937 -0.05183752 -0.06694789 -0.027057987 -0.022610273 0.047336914
hukuk:-0.06953469 0.24402884 -0.18720973 0.23440816 -0.08784201 -0.05663563 -0.09859242 0.059620425 -0.045330547 0.1250671 -0.071804434 -0.20984161 -0.102455445 0.026142357 0.09209714 0.13128066 0.30073285 0.19648996 -0.26607516 0.12822853 -0.21252994 -0.11254432 0.06783178 0.16664839 -0.13073343 0.08566002 0.07758553 0.17928684 -0.020504855 -0.05160476 0.051617447 0.026960589 0.018341098 -0.052975416 0.20302483 0.09593133 0.17098492 0.058655586 0.12823968 0.27824858 0.36430722 -0.046801507 0.1878873 0.25629175 0.36278838 -0.21068877 -0.013312971 -0.025296163 -0.11494024 -0.40367934 0.2580397 -0.10570626 -0.0069176387 0.2828905 -0.10338816 -0.009815787 0.022335196 -0.114336185 -0.02060656 0.038503896 0.39445403 -0.3882141 0.25013527 -0.23313107 0.30170223 -0.050996263 -0.14309354 0.066566244 0.07852965 -0.06422182 0.06429775 -0.11464121 0.22715783 -0.038839556 -0.32285836 0.11035641 -0.037486266 0.29085946 -0.18864278 -0.0978612 -0.34182644 -0.20381911 0.054116666 0.10561711 -0.4129387 -0.027348405 0.12547204 0.035155576 0.32051384 0.13110654 -0.059141085 0.2267832 -0.17260858 0.27603602 -0.034433987 -0.18222186 -0.15785855 -0.11297711 -0.30795166 0.19476715 -0.050325125 0.16978547 -0.12065038 0.11106958 -0.06681976 0.11546375 0.010488108 0.005228705 -0.2628614 0.076510966 -0.118544005 -0.1530554 0.3756342 0.20867102 0.1637626 0.047833186 -0.22152768 0.03022826 -0.05163862 -0.051466666 -0.023705624 -0.101319015 -0.14674708 -0.19597815 0.2898432 0.22571231 -0.062129177 -0.15832232 -0.2503975 -0.4062726 -0.17289148 -0.16567135 -0.1791699 -0.17788266 -0.07003551 -0.015358007 0.4923227 -0.079418615 -0.21122472 -0.057978146 0.307644 -0.41584527 -0.11084194 0.118022 0.04723218 0.0018429446 0.14163344 -0.29077148 -0.17895211 0.11704674 0.09342065 -0.12737362 -0.20226038 0.19094564 -0.27361932 0.15867667 0.16102052 0.35954922 0.31425944 -0.1782155 0.03538042 0.019635208 0.16892971 -0.15133835 -0.050257687 0.2606148 0.12539884 -0.08101113 -0.48226887 -0.48266593 -0.2085781 0.40864623 0.123549305 -0.19910584 0.023873672 -0.28450432 -0.15682743 -0.08297701 -0.08271519 -0.08481235 -0.24636284 -0.24370469 -0.039372742 0.027982779 0.020564195 -0.12573183 0.28729305 -0.05452904 0.12839402 -0.047133077 -0.036603175 0.27240834 -0.14218067 -0.14822493 -0.049056698 0.013555057 -0.11889472 0.49218097 0.32111812 0.06268126
görsem:0.130364 -0.003200844 0.15108578 -0.6336377 0.22813015 0.024818424 -0.07935706 -0.25268608 0.19542797 -0.18753052 0.20325246 0.14966236 -0.01930387 0.2225343 -0.3152902 0.5423158 0.20380609 0.2935183 -0.11338642 0.5211911 -0.4327201 0.21851929 0.09813703 0.22279198 0.101761885 0.060581055 -0.14709155 0.16209188 0.14139856 -0.16043185 -0.04839869 -0.40983626 -0.094538346 0.15988319 -0.21601854 -0.053004332 0.11692754 -0.36260852 -0.25080687 0.15815769 0.00054893264 -0.012451461 -0.051358413 0.15892266 0.16825353 -0.3710863 0.120669216 -0.19320986 0.37593377 0.22949333 -0.025722723 -0.12560067 -0.25090894 -0.3769733 0.24110179 -0.42422765 -0.039618805 0.09422926 -0.09747128 0.13178456 0.4850103 -0.12453132 0.5169332 0.3698256 -0.2527498 0.3438876 0.0847239 0.443911 -0.15334836 -0.34624606 0.44448164 -0.07128222 0.049882535 0.047872297 0.13565335 0.38093805 0.3507909 0.16822268 0.33507052 -0.05569662 0.3080902 -0.19673587 0.21315636 0.020092634 0.13301405 -0.015605988 -0.32838762 -0.664249 0.23183718 -0.023553086 -0.49243212 0.09601264 0.20147917 -0.2782408 -0.056479976 -0.06997445 0.22381331 0.20570675 0.11326859 -0.19011275 0.019916916 -0.17195046 0.3334896 -0.39284068 -0.036710758 -0.09570061 -0.11886007 -0.16140936 0.107838035 -0.37993002 0.31167832 0.073573574 0.1453964 -0.3916097 0.3589046 0.19154637 0.40264177 -0.09849936 0.23901351 0.20654763 0.08904376 0.19183917 0.24832965 0.007454895 0.023719385 0.15169394 -0.04519011 0.114725284 0.015154069 0.16935596 0.091702655 -0.016209815 -0.52836686 -0.24975593 -0.08986679 -0.18278377 -0.3980134 0.048359975 -0.13498877 0.18511157 0.4580484 -0.069670714 -0.038527172 -0.18603855 -0.016263306 0.12624726 -0.09129065 0.34787232 0.06267169 -0.070532985 0.23564593 0.056050938 0.20852354 0.58819586 0.068088286 0.03204029 -0.27718678 -0.20040126 -0.10661646 -0.16109204 -0.36934942 -0.17489666 0.21646534 -0.17584696 0.08156344 -0.20889853 -0.035451613 0.39039105 -0.27289224 0.13008046 0.07811464 0.03062872 0.17189012 0.06416372 -0.30294982 0.16064149 -0.6636857 0.3686616 0.0850489 -0.15834849 -0.17405508 0.106389485 0.35702032 -0.17877525 0.28594875 0.1906168 0.21815741 -0.28568003 -0.194132 -0.02089558 0.2821283 0.08414276 -0.25004995 -0.21949431 0.19144018 0.14134516 0.13089503 0.41537982 -0.1339017 -0.19201733
versem:0.52914405 -0.4529682 0.036628313 -0.30010647 0.093824066 0.0622918 0.23080371 -0.17487916 0.082918026 0.023871714 0.25557935 0.18463217 0.0749386 0.18664107 -0.30772927 0.23474266 0.13365144 0.2065765 -0.16995317 0.17515467 -0.25365695 0.1002705 -0.23352964 0.1767399 -0.056319177 -0.12635678 -0.079117924 0.2415217 -0.16375306 -0.056246117 0.15456879 -0.40631747 -0.28044334 0.101785414 -0.19623251 0.2035159 0.17066307 -0.3094279 -0.18633337 -0.27049977 0.06809371 -0.16836305 -0.058440197 -0.09740778 -0.14214733 0.006877922 -0.012194054 -0.3505976 0.13033202 -0.35229805 -0.10024394 -0.06433668 -0.0069250595 -0.40080953 0.15311077 -0.15110707 -0.09711016 0.08822592 0.26151082 0.21364647 0.09468505 -0.09296963 0.32525396 0.053846985 -0.36670685 0.16842325 0.27473766 0.29443264 -0.017022911 -0.08884781 -0.14450698 -0.109387346 -0.048047997 0.21244493 -0.028981717 0.3476838 0.039846472 -0.20282125 0.16199745 0.2387656 0.37932876 0.36068675 0.16357905 0.18286681 0.057429727 0.121350914 -0.036156274 -0.17496118 0.06634709 0.1285647 -0.043024752 0.050232008 -0.25588384 -0.3054636 -0.15463449 -0.20300996 -0.010480065 0.0610026 0.025245648 -0.047609746 0.078824446 0.019195996 0.0047685546 0.16247249 -0.2987946 -0.11341584 0.02569417 -0.20343597 0.02075227 0.0067962897 -0.29812783 0.019602023 0.2372943 0.008452517 -0.04243918 0.07068424 0.07838178 0.033754118 0.077981286 0.22527526 -0.17172763 -0.1358757 0.011365884 -0.11133092 -0.31869715 -0.33363172 0.14420973 0.0505281 -0.08992361 -0.029171444 0.031014616 0.14311554 -0.2382276 0.10659676 0.017144166 -0.30134737 -0.27735424 -0.13430962 0.07484645 0.14112414 0.0323901 -0.3424056 0.005131856 0.21946701 -0.19819914 -0.035074435 -0.061570715 0.09034027 0.27865773 -0.123632155 0.16424586 -0.19318989 -0.13197425 0.37018847 0.039803445 0.26640698 -0.079040274 -0.099031284 -0.20485753 0.08910169 -0.048192948 0.012682037 -0.120619565 -0.37633425 0.048874587 0.12184728 -0.31312323 0.02277457 0.15766948 -0.30734712 -0.3710797 0.15984358 -0.048290405 -0.4631915 0.2648516 0.048289966 -0.060163233 -0.053070795 -0.10638747 0.00852697 -0.045031015 -0.17327377 0.033123385 -0.21864535 0.08930593 -0.040000666 0.31087884 0.25390348 -0.1917328 0.12003862 0.13216287 -0.10840999 -0.025114803 -0.32678974 0.20599909 0.13285802 0.006274612 -0.36803278 -0.14275804 0.5747592
şey:-0.022595415 -0.11326998 -0.22120932 -0.18377407 0.10034102 0.07502723 0.13995801 -0.050501164 0.070478 0.099313274 0.16985671 0.091566026 0.019920193 -0.19952765 0.10044372 0.22760189 -0.2329788 0.22173832 -0.023939718 0.11833419 0.035388824 0.021275943 -0.07445221 -0.16320787 -0.17161112 0.2015628 0.023514459 -0.035473216 0.046267744 -0.07031136 -0.009090003 -0.26296028 -0.10672229 -0.07497304 0.13255131 -0.05517192 0.29752827 0.0067559807 0.030439526 0.02364234 -0.07211953 -0.15351477 -0.28399992 0.05240355 0.100084096 -0.055561893 -0.0118329665 -0.11657084 -0.10123389 -0.043643475 0.26076812 -0.20222302 0.10272005 0.042280782 -0.113965474 0.003531555 0.046664324 0.22542083 -0.00952704 -0.052948993 0.11732415 -0.004045273 0.14046426 0.021123882 -0.23658733 0.26605722 0.051445007 0.36232707 -0.21633086 -0.027687173 0.14590755 0.06920168 0.06046683 -0.12642044 -0.16209143 0.21640153 0.104374506 -0.24176502 -0.21736306 0.24067715 0.12871028 0.201649 -0.0122714685 0.016015373 -0.11653533 0.027374769 -0.05580354 -0.1253113 0.12266347 -0.019701263 -0.030790843 -0.013936299 -0.1409343 0.1838545 -0.050106373 -0.087576024 0.0055194576 -0.20247558 0.09133302 -0.19499828 0.22512549 -0.12365745 0.015797656 -0.088103086 -0.0820062 0.28484327 -0.09615957 -0.01724977 -0.095581844 0.19650717 0.16666073 0.31748122 0.12608224 -0.32203346 0.012953386 -0.18401179 0.0069488077 0.022636984 -0.041998368 0.040160492 -0.07282405 -0.17901284 0.20702761 -0.118036546 0.03032648 -0.014544878 0.009142174 -0.063027576 0.27336553 0.056784876 0.104869545 0.27146095 -0.10484133 -0.039007813 0.12187326 0.118534714 -0.008942953 0.12543711 -0.033599235 0.015923537 0.36533767 -0.34976685 0.19343711 0.109681584 0.00335362 0.19196787 -0.1450167 -0.023712806 0.24109977 0.16399428 0.003179183 -0.0364742 -0.16747136 0.28016803 -0.35979176 -0.110248506 0.11465105 -0.18664064 0.13340482 -0.13990188 0.015949903 -0.082393005 0.20292129 0.016155936 -0.09588528 -0.08078699 -0.16602874 0.044829786 -0.056181718 -0.26778778 0.040763892 -0.16345714 0.06950497 -0.019182852 0.036676735 -0.18625939 0.03054777 -0.0059462935 0.054878913 0.08083939 -0.016594063 -0.186408 0.16520794 -0.0070430376 -0.038760845 0.116096355 0.07352253 -0.12976071 -0.04104849 -0.04845547 -0.04395784 0.084509306 0.07872736 0.048373625 -0.043127544 -0.016866706 -0.07553394 -0.22663361 -0.12923467 0.043977894
olamaz:-0.14968522 0.04510343 -0.13344045 -0.029725581 0.11178551 -0.010413208 -0.1369223 0.035829924 0.109224945 0.001137387 -0.085227706 0.034245502 0.012761309 -0.18579388 0.20474024 -0.0028757944 -0.20824112 0.35967743 0.033933707 0.16470264 -0.10177313 0.032208085 -0.12822448 -0.123114176 -0.33406183 0.004078618 0.1335861 0.026766697 0.16562986 -0.097829744 0.003587699 0.03475856 -0.12228399 -0.06997503 0.12559602 0.042819206 0.1955189 -0.039070785 0.10751614 0.17231756 0.3225905 -0.019921077 -0.11975754 -0.08569632 0.20358482 -0.053734038 -0.12395718 -0.14126511 -0.10310951 -0.026888944 0.40708104 -0.16255757 0.08725848 -0.03452547 -0.04171364 -0.2340229 0.11756947 0.14910802 0.14607511 -0.11237823 0.03502555 -0.21544911 -0.106050685 0.12333343 0.06697757 0.08684426 0.08911187 0.05844795 -0.08136397 -0.1816383 -0.15697317 -0.13759324 0.032144424 -0.11895871 -0.11454578 -0.04405042 -0.11166626 -0.036644805 -0.2624742 0.18978414 -0.085098065 0.11689585 -0.063944705 -0.12797175 -0.10021293 0.3123814 -0.08760645 -0.12067424 0.166303 0.11157473 -0.024763184 0.028816978 -0.16254513 0.028903844 -0.16235532 -0.18168877 -0.05756114 -0.20956245 0.13683876 0.059490934 0.14448655 0.11658726 -0.119734585 0.06501607 -0.0007729668 0.22169207 0.22416335 -0.093158245 -0.21036778 -0.13265076 -0.1254523 0.21106088 0.34681043 -0.10441121 -0.21612135 -0.11832573 -0.013543945 -0.18504179 0.06620122 -0.12696402 -0.29971835 -0.24748549 0.05106351 0.11362951 0.06758265 -0.10748858 0.029685078 -0.19028735 0.22911693 -0.21961604 0.05460508 0.26387417 0.01666494 -0.15461904 -0.03374383 -0.093320645 -0.07104859 -0.08440514 0.13767327 -0.090247616 0.22944237 -0.14009005 0.20767911 0.08705821 -0.09905852 -0.031241603 0.07770249 -0.042012364 -0.00826003 0.112328686 -0.033437327 -0.00042799624 -0.027496396 0.07829214 -0.042112995 0.05721639 0.06056996 -0.14514634 -0.105582654 -0.16167413 -0.0037648526 -0.1410644 0.09851066 -0.18274985 -0.022467414 -0.06405275 0.07808826 0.29202324 0.030148262 -0.22118852 -0.2358615 -0.05909256 -0.13140184 0.036864713 0.1320959 -0.18241526 0.21046193 0.14265297 0.10477579 -0.055947326 -0.16434206 0.09642018 0.060706496 0.17249608 -0.13658114 -0.15059134 0.2529697 0.10136021 -0.025768906 0.12603469 0.23966266 0.2093358 0.00031008682 -0.14665492 0.07356383 0.115319245 -0.22666326 0.06318192 0.11897047 0.10914642
bakalım:0.40391296 -0.3544309 -0.19855072 -0.14835417 0.2533909 -0.06989213 0.13462342 -0.14009993 -0.17784101 0.04605387 -0.029619178 0.15425828 -0.12166832 -0.04431798 -0.07882256 0.2160203 0.19889893 0.12931979 -0.34675902 0.08195262 0.117076375 0.17678323 -0.036326483 0.13174698 -0.19684902 0.20711519 -0.19465283 -0.019587364 0.04224006 -0.16571058 -0.10598397 -0.037271526 0.23003364 0.16461626 0.1054374 -0.05635215 0.115561515 -0.08679657 0.0152185 0.03393067 -0.06981891 -0.26713157 0.08809247 -0.041971378 -0.004680315 -0.08894101 0.21964304 -0.16499013 0.081913285 0.1123278 0.056197252 -0.0013022458 0.34188023 -0.29533413 0.3311098 -0.23715183 -0.14095137 0.041264165 0.053963315 -0.074741386 0.30712914 -0.01455448 0.36360842 0.07305602 -0.2802473 -0.090470456 0.050799336 0.16245335 -0.11966358 0.004473997 -0.08236086 -0.030112997 0.029336708 -0.06783305 0.024128472 -0.004521619 0.17930932 0.11696679 -0.036530785 0.029066443 0.25719276 0.27224457 0.16790093 0.12835634 -0.031089172 0.11111478 -0.07616365 -0.014979863 0.027628182 0.13391985 -0.07108373 -0.08155398 0.086858325 -0.19508907 -0.098512106 -0.16385226 -0.1000035 0.124202766 -0.03531353 0.048659008 -0.007175534 -0.09056349 -0.11119778 -0.16178754 -0.06428064 -0.16840117 -0.09330859 0.10817456 -0.09851292 -0.04709531 0.099255145 0.04360304 0.051570542 -0.060760528 -0.017804002 0.09989007 0.115818195 -0.10287347 0.22125915 -0.100075714 -0.051136076 0.003593104 -0.0677922 0.020198721 0.2054549 -0.20837958 0.24496612 -0.059427835 0.054207753 -0.13335577 0.25773826 0.054782014 -0.09436219 -0.029119724 0.1141778 0.058676697 -0.033920202 0.057156723 0.13949983 0.12322051 -0.11082028 -0.09210356 -0.13369396 0.021593621 -0.12254809 -0.010307608 0.15041706 0.105463356 0.22202267 -0.13616164 -0.031454362 0.04697836 -0.18039851 -0.027429206 -0.09937156 -0.08773434 -0.018635249 0.1141326 0.09996129 0.072846696 0.022785872 0.06283633 -0.09869912 -0.17583488 0.08000527 0.0034311817 -0.27862754 0.08508939 -0.039012916 -0.08194449 -0.16028534 0.26349613 -0.005722607 -0.003290742 0.03982696 0.1574952 -0.098930225 0.0948652 -0.25067458 -0.17723282 0.011161713 -0.045334984 0.07746706 -0.16714843 0.020241234 -0.09712493 -0.10960776 -0.10897634 0.17189486 -0.03667027 0.10051376 0.27825135 0.045992102 -0.013467591 0.015735477 0.09466985 -0.02954038 -0.060890373 0.13087928 0.017409327
mutfakta:0.16156709 0.106212966 -0.15578046 0.086896524 -0.03192953 -0.11224342 -0.0007380706 -0.22928174 -0.017032329 0.1404957 -0.0026711589 -0.0059822532 -0.13690604 0.21048097 0.011844531 0.06271292 0.139594 -0.28591916 0.16027685 -0.06996199 -0.1284371 0.10911208 -0.015975578 0.0052398825 0.022740506 -0.01442859 -0.16552263 0.03191573 0.06913806 0.030716367 -0.081534885 -0.29679808 0.0094011845 -0.12803732 0.08049244 0.2565112 -0.024160974 0.33708897 0.05537281 -0.22899748 -0.0072377753 0.06958218 -0.20334578 -0.2350621 0.11346414 0.11853068 0.30846632 -0.23415792 0.055308983 -0.1262589 0.43527174 0.0011508601 -0.19798097 -0.19498824 -0.1432056 0.011920119 0.32120663 0.044343222 0.16720983 0.15409845 0.07314226 -0.0055459817 -0.032903325 0.20262188 -0.3554006 0.3040646 0.24845923 0.047857944 0.037129432 -0.13548784 -0.12654935 0.059476648 -0.11858972 -0.13404445 0.095024824 0.036566414 0.09278208 0.08406304 0.19253331 -0.13073522 0.09139717 -0.06348621 0.21293825 0.07992687 -0.08421269 -0.13942504 -0.06632866 0.018099703 -0.07049436 0.079654366 0.21118069 0.15451247 0.16685021 -0.0929643 -0.06653988 -0.08077556 -0.053268358 -0.06907179 -0.11193613 0.11260208 -0.1714867 -0.079117045 -0.12555343 -0.159238 -0.017986747 0.10561467 -0.010613951 -0.1918488 0.12218449 -0.11968672 0.29482102 0.27732274 0.054627452 -0.16268799 -0.081650764 -0.15141675 0.14451544 0.23207653 -0.11665735 0.15470044 -0.21483895 0.027927946 0.18692477 -0.0931944 0.10618284 -0.15697822 -0.100404 -0.13413228 -0.04865747 0.019626305 -0.009708293 -0.043654308 -0.21043226 0.14168212 -0.15352745 0.2447425 -0.09233638 -0.013857027 -0.03639316 -0.115577824 0.06787101 0.013623735 -0.001056645 -0.27935034 0.32721153 0.14267506 0.23157735 0.016114322 0.10483778 -0.22804683 0.1736151 -0.08589289 -0.056490537 -0.06823857 -0.4512907 -0.015609426 0.04847182 0.06772952 -0.02017264 -0.1452582 -0.053900942 -0.10257717 0.21117748 -0.010325757 -0.28477994 0.16173413 -0.24810432 0.27059534 0.23920362 -0.13803451 0.13898632 0.25967023 0.18556787 0.08301232 -0.042728473 0.28542417 -0.06386273 0.056226812 0.31240013 0.16604288 0.17116085 0.16188678 -0.038046625 -0.0747883 0.15283996 -0.108213335 0.15762955 -0.18531409 -0.25312865 0.020490672 -0.11934342 -0.075318284 -0.043742005 0.11656948 0.114897504 -0.09328638 0.11841231 -0.10397175 -0.22923535 0.100612186
mart:-0.023715533 -0.028623927 0.11575675 -0.45232487 0.015865987 0.38654846 0.2075018 -0.16832863 -0.11211897 0.2304323 -0.059380375 -0.07130177 -0.046597026 0.002374306 0.1495757 -0.21774909 -0.11712724 0.07137953 -0.44361946 0.26272017 -0.070817545 -0.098570846 -0.22718762 -0.031308763 0.2066535 0.19434755 -0.14967972 -0.025861097 0.13001747 -0.0391694 -0.22109357 -0.2595325 0.17548154 -0.1649968 -0.1039418 0.25139898 0.21448117 0.17622809 0.093492314 0.0051638745 -0.4813322 0.3383951 0.14303279 -0.1981472 0.17855458 -0.09053816 0.07361119 -0.3882075 0.18803857 0.12119534 -0.18976441 -0.13242128 -0.19350426 0.20968471 0.20802571 -0.022742141 -0.46858206 -0.14963998 0.21583238 -0.15655774 0.12700498 -0.08108061 -0.042889 -0.029166564 0.30480623 0.04157676 0.043239504 0.10583281 0.5096797 0.21207404 0.12077181 0.34423283 0.42461258 -0.20093763 -0.44822672 0.19729644 -0.07633633 -0.24991621 -0.11467646 -0.43702626 0.3032639 -0.2703825 -0.22232956 -0.3474035 -0.12535742 0.15947522 0.28639776 0.21076503 -0.20718996 -0.12653041 0.073558964 -0.01572123 -0.014963756 0.10114165 -0.037561573 0.02046143 -0.0041596023 -0.035373244 0.051547065 -0.08799012 -0.14007747 0.20514491 0.31127337 -0.029222231 -0.27346703 -0.2103645 0.3356994 -0.15438308 0.0760441 -0.2211172 -0.09850418 0.1535435 0.38925081 -0.10538079 -0.19631936 -0.26219636 -0.0549654 0.09712474 -0.19272287 -0.16545932 0.03576022 -0.13855019 0.1484583 0.22166218 0.26145393 0.2643787 0.14833623 0.050047852 -0.145938 0.1785829 0.06371415 -0.1570163 -0.03372388 0.17115235 0.07980863 -0.09010944 -0.046341754 0.19065312 -0.09219267 -0.37155688 -0.29036242 0.02744329 0.153996 -0.5079482 0.053664923 0.029670179 0.035352495 -0.0696224 0.28876746 0.2744234 0.3872569 -0.27234313 0.045602422 -0.093204305 0.05803312 -0.057941325 0.10867508 0.08729426 0.5141273 0.28406835 0.4338023 0.22864619 -0.013585372 0.24341534 0.080492735 0.035401456 -0.019634515 0.06640334 0.020999832 0.2816589 0.27356413 0.22544153 0.2578664 -0.10039541 -0.17040326 0.4602352 -0.24510917 -0.036690485 0.13748586 0.04057902 0.21542636 0.090238936 -0.045270033 -0.31685996 -0.03601875 -0.41884318 -0.2752753 -0.11798562 -0.05898698 -0.11418018 -0.18799338 0.18003201 -0.031811062 -0.0035269894 -0.06695305 0.0009321507 -0.16142486 0.21005243 -0.0138441315 -0.04127696
vizyona:-0.07056704 -0.06539519 -0.2109152 -0.21623778 0.14944638 0.15064865 0.89184326 8.762241e-05 0.39736405 -0.0723772 -0.089901924 -0.14683013 -0.0304475 -0.36609095 0.55905414 -0.09660519 0.073692806 -0.109602384 0.023761958 -0.08584725 -0.1445159 0.0025707174 -0.004721971 0.12298408 -0.24453638 -0.11072928 -0.10485349 0.026712257 0.002568691 0.15138684 -0.24638633 -0.29912737 0.2887314 -0.3495213 -0.07813237 -0.07396936 0.008860169 -0.15118665 0.6329706 -0.09423104 -0.16738135 -0.026767498 -0.44818327 -0.15541308 -0.035044044 0.0051559107 -0.213308 -0.027888827 0.13388562 0.3468588 -0.20086305 -0.26046583 0.13037167 0.385186 0.012357813 -0.48138365 -0.037691507 -0.3992505 0.008559904 0.2257589 0.53633493 -0.20967999 -0.3617588 -0.037841216 -0.05709954 0.19036874 0.3067513 -0.057328064 -0.282283 0.16391122 -0.01895425 -0.6119403 0.050674528 0.2761838 -0.30426645 0.18519275 0.38015267 -0.31333572 0.052638303 -0.105822526 0.059651863 0.123092666 -0.017605983 -0.0412468 0.52445257 -0.062718935 -0.13002712 0.34220618 -0.050999466 0.07391671 0.53585654 0.28445435 0.20929246 0.23904635 -0.13099927 -0.26533988 0.04903146 0.12524693 0.20434429 0.52645683 -0.19615132 0.14430487 0.4445877 0.12851574 -0.03998969 -0.038838096 0.4464816 0.3430067 -0.29732192 -0.36137927 0.17864338 -0.029311951 0.2001554 0.19662516 -0.11110646 -0.31560433 -0.15101722 -0.07845149 -0.02375052 0.262931 0.17998771 0.095060594 0.24708787 0.054967143 0.11246161 0.2977822 0.33649746 0.23064458 -0.051762868 0.21950072 -0.28540844 -0.39150774 -0.13916062 -0.00058639847 0.5765685 0.69943184 -0.4047407 0.01983309 -0.4539955 0.081162244 0.0103822285 -0.0776996 0.054595176 -0.2867183 -0.37758934 0.16512558 0.15581067 0.012736854 0.23645326 0.13347244 0.47024918 0.339332 -0.23681721 -0.0913778 -0.006263684 -0.21598093 -0.44981518 -0.08633523 0.1950348 -0.0033997623 -0.052910272 0.39733586 -0.26851076 0.60049117 -0.049248006 0.09637788 0.07782447 0.07538446 0.061873075 0.20741093 0.03049031 -0.060224093 0.48915327 0.196294 -0.1471022 -0.025033692 -0.14722466 0.36827642 -0.1555808 -0.07375793 -0.012544088 -0.0830716 0.0010256347 0.08179629 -0.10440824 -0.13282402 -0.22089623 -0.20578702 0.55203474 0.16066542 0.082681954 0.05382774 -0.28648937 -0.29562977 -0.12101926 -0.33077347 0.18383378 0.26735038 0.12825915 -0.0638755
tammam:0.1946768 -0.06589355 0.008220713 0.080111735 0.06578024 -0.07215919 -0.08724793 -0.011134738 -0.0120034255 -0.047079958 0.03759213 0.040434074 -0.028079357 0.050962202 -0.10386943 0.08500525 -0.015339406 0.089395 -0.09587805 -0.005239822 0.017880596 0.07626731 -0.08276383 0.11904215 -0.08744677 0.08901816 -0.02245713 0.019509139 0.04278364 -0.1114078 -0.025565723 -0.09081957 0.018149873 0.07670152 -0.058062535 0.085459836 0.011042924 -0.050244477 0.021983128 -0.091171294 -0.030939719 0.0019579246 -0.008721409 0.011855474 0.06362202 -0.006397892 -0.07787586 -0.08625489 0.08156626 0.100493275 0.10104548 -0.043446325 -0.044929758 -0.071091294 -0.06779496 -0.12549432 -0.04972029 0.1190032 0.11199934 -0.01170014 0.14800152 0.07085593 0.026309991 0.051121466 0.0023021332 0.014825462 0.006190154 0.0881553 0.009990859 -0.115093194 0.11092128 0.013809596 -0.016934438 -0.13937292 -0.00085512665 0.18373635 0.058845744 0.043261204 -0.013107127 0.040008344 -0.119088516 0.21187353 -0.028763313 0.08996289 0.072007805 -0.15923706 -0.06763113 -0.04685194 0.03249734 -0.016397055 -0.032923274 -0.03904465 -0.06483656 -0.05253548 0.037628792 -0.09332969 0.03502552 0.17059527 0.1091637 -0.13411407 0.11193094 0.035461992 0.005804446 0.019311 -0.022516498 -0.1212428 -0.037717056 0.18815708 0.050859768 0.18828872 -0.027958043 0.12868078 -0.07171164 -0.034749977 0.14346571 0.030315084 0.015891235 -0.11238105 0.03694996 -0.047060702 0.011600153 -0.08083245 -0.0063169436 0.08028396 0.15749426 -0.12704562 -0.069191396 0.15762568 0.04042497 0.010077735 0.007267802 -0.11276563 0.05477789 0.057623778 -0.120861046 -0.063975304 -0.10630099 0.018428992 -0.11409249 0.045027338 0.096475944 0.041146502 0.06287172 -0.10948066 0.026725953 0.14088997 -0.019057136 -0.018059665 0.08163904 -0.21115199 -0.02949411 -0.059719406 -0.097321875 -0.027601484 0.014107928 -0.034151573 -0.00795872 -0.13231297 -0.09771866 -0.035171654 -0.046381332 -0.08328563 -0.119095415 0.028687479 -0.11325707 -0.0074025947 -0.14282608 0.010507878 0.11513113 -0.10939916 -0.010174144 0.0077372473 -0.0015957038 -0.04718978 0.03704605 0.0666641 -0.063383006 0.06770465 -0.06286177 -0.01892244 -0.0326429 -0.062843226 0.054193 0.014566929 -0.031517174 -0.067327395 0.074753225 0.11070956 0.0045682276 -0.022490826 -0.019612104 0.012388832 0.037454907 -0.107366815 0.10243983 0.054476034 0.07019452 0.008279874 -0.11375922 0.049961947
olacağından:0.105042234 -0.23307835 -0.015762063 0.13554202 0.09998927 0.054625485 0.027086668 0.2739477 -0.1517376 0.030682517 -0.09571767 -0.006743221 -0.026029475 -0.17920566 0.0019886007 0.14326452 -0.27595574 -0.086693875 -0.025626017 -0.003296277 -0.21892877 0.023532541 0.0797913 -0.24446377 -0.055765055 0.017345758 -0.023098856 -0.008745867 -0.28834623 0.11146033 -0.076495886 -0.020084139 0.04326671 0.11277184 0.03640796 0.18891442 0.024783662 -0.2516492 0.063366085 0.1684001 0.20558162 -0.09053833 -0.05717533 0.02486706 0.13130327 -0.015032802 0.05953438 -0.020064462 -0.15373439 -0.18823305 -0.015728854 -0.01985587 0.05408452 -0.17781813 -0.053127944 -0.13647024 0.15414636 0.13716458 -0.16013324 -0.015383515 0.15474528 -0.1521778 -0.45231134 0.10286779 -0.031181196 0.16549422 -0.09191697 -0.15382132 -0.016589373 -0.062391028 -0.16406237 -0.09794988 -0.21740918 -0.07951732 -0.11328106 0.008370502 -0.18644938 -0.41258696 -0.085903324 -0.08879717 -0.113731176 0.076560795 -0.3555004 -0.3407883 -0.030232035 0.14948843 -0.1786647 -0.10849801 0.112715006 0.04537542 -0.11598479 -0.0052442774 -0.07064305 0.09036399 -0.18055257 -0.43627012 -0.0009525217 -0.08920222 0.14669938 0.14073649 0.02741906 0.036972698 0.123672724 -0.031628743 0.037083816 0.32757327 0.12946935 -0.1362456 -0.12572749 0.17225069 0.12338706 0.122892 -0.06265063 -0.102993004 -0.17872576 -0.11270841 -0.07662551 -0.16526112 0.062352978 0.09915731 -0.19852577 0.031132685 0.02243294 -0.010686297 0.16143233 -0.22619127 0.10688567 -0.11943628 0.06447491 -0.13207495 0.23714162 0.23600696 0.018342294 0.023381626 -0.08479558 -0.07834022 -0.09896745 -0.08266106 -0.019173563 -0.1584715 -0.08872296 -0.16041693 0.23947206 -0.06896481 -0.17994681 -0.2901708 0.11272249 0.085285366 0.047762804 0.34101316 -0.041211177 0.0555146 0.18014705 -0.12699737 0.10072543 0.18506302 -0.018660557 0.014968819 -0.014572164 -0.049194347 0.09065067 -0.08404248 -0.05911046 -0.049031995 -0.0367272 0.11331181 -0.08000127 0.21713187 0.027529914 0.018078197 0.012122542 0.10259665 -0.09824877 0.050258245 0.012509917 0.1011447 0.39260185 -0.07606444 0.091508195 -0.033553913 -0.35488883 0.08709001 -0.18989244 0.06882404 0.03190702 -0.32247728 0.08886117 0.1905534 0.026477586 -0.20261045 0.027855104 0.20919915 0.0673616 -0.27501976 0.13501072 0.03486789 -0.21048671 -0.071664415 -0.14801458 -0.13030405
geliyor:0.21089815 -0.06533141 -0.16206098 0.09224882 0.056829736 -0.12506528 0.044264305 -0.26304957 -0.15770517 -0.09749661 -0.086823165 0.23526657 -0.054711964 0.03326477 0.12641706 0.18679714 0.04338662 0.04750472 -0.12846042 0.06708203 0.07615895 0.042109456 0.052374206 0.026249355 -0.045420803 -0.1123064 -0.10580992 -0.07425495 0.14784469 -0.16065322 0.20065573 -0.15197733 0.24506281 -0.20103487 -0.1362597 0.013223842 0.04716033 0.11908423 -0.1002444 0.12480789 0.13661724 -0.06408033 0.023299886 -0.106455006 -0.06961608 0.0031804484 -0.105641946 -0.015645681 -0.11338763 -0.087893255 0.21274234 -0.105477884 -0.065869845 -0.25363472 -0.07664004 -0.102052346 -0.07285068 0.22193116 -0.16872846 0.1500075 -0.077137865 -0.23451076 0.19373132 -0.17341498 -0.21217585 0.027851751 -0.105880864 0.051262915 -0.15835601 -0.2177262 -0.13191178 0.20608822 -0.10931039 0.006857428 -0.08572058 -0.15052538 0.16584164 -0.1398626 -0.08113615 0.014562566 -0.0068203867 0.15253814 -0.0020952732 0.12821253 -0.092139564 -0.08281832 0.0056169434 -0.00661137 0.07542569 -0.073087566 0.0934686 0.08923891 0.13248053 0.16652076 -0.007170814 -0.13786225 -0.182194 -0.015666243 -0.017975984 -0.26232743 0.30416694 -0.15939415 0.09296544 -0.06018553 -0.12053886 -0.32567257 0.080451846 -0.022837073 0.11020922 -0.18216343 0.058825336 0.27303603 0.09942928 -0.048769593 -0.043854713 0.15076426 0.2609845 -0.06628575 -0.06072071 -0.089235984 -0.16228528 -0.12359989 0.16896467 0.026638458 -0.032000426 -0.014207759 0.2627516 0.2570731 0.12757356 -0.07773716 0.18939687 0.07219106 0.2044178 -0.11275238 0.13459125 -0.0687127 -0.054046463 -0.116634876 0.04590893 -0.0018666895 0.14073934 0.07599226 0.07924719 0.07125208 0.009863818 0.18018652 -0.032325394 0.20256115 0.11566942 0.038807373 0.100762546 0.049918104 -0.12239089 -0.21037129 0.05082591 0.12820213 -0.04821884 0.12027486 0.044238865 -0.06681862 0.09831011 0.02528632 -0.04461089 0.07696209 -0.043683343 0.097776584 -0.37700617 -0.023518948 -0.041301742 0.014718422 -0.19986553 -0.2118439 -0.033852793 -0.13018164 0.18428023 -0.12141141 0.03656976 0.20723675 0.02217682 -0.17920475 0.055288054 0.1965565 0.22561653 0.04168887 -0.052061792 -0.10223775 -0.016873531 -0.1282273 0.049254533 -0.04695165 0.02688186 0.13610458 -0.081055805 0.020442417 -0.13398358 -0.030903114 -0.2178238 0.16736814 0.23733434 -0.13096389
beni:0.10946722 -0.05124998 0.08125272 -0.28134257 -0.01935272 0.16616133 0.017334683 -0.15497705 -0.09770934 0.24924396 0.1359841 -0.07491619 -0.018004503 0.21945696 -0.21076994 0.3560387 0.20657335 0.11670022 0.037934422 0.000627156 -0.19304387 0.18361306 -0.11852393 0.041813232 -0.15640728 -0.116947755 -0.08344262 0.24502589 0.002777234 0.06602444 -0.19955505 -0.31105244 0.0017564159 0.27472883 -0.015175149 -0.07529902 0.18131521 -0.011901026 -0.07318662 0.02134227 0.17332366 -0.2110676 -0.006723497 0.1791155 0.011455068 0.1599148 0.24338214 -0.06439558 0.19582206 -0.054109983 0.15604705 -0.13754427 0.005558442 -0.027600568 -0.3854784 -0.17483664 -0.14105926 0.42935422 0.04381485 0.09341506 0.08649201 -0.1840997 0.07024753 -0.17883709 -0.4301727 0.08668335 -0.10267526 0.44106242 0.0552895 0.047645323 0.15994723 0.264809 -0.06669832 -0.1080858 -0.04667385 0.22630793 0.13382815 0.024489366 0.13488056 0.11440913 0.0065749334 0.20666054 -0.13080642 0.11387711 0.03450756 -0.091079235 -0.24569981 -0.21018392 0.23335272 0.07093924 -0.18491922 0.15220225 -0.11134197 0.050811354 -0.22612286 0.026727613 0.094913565 0.14104882 -0.07630801 -0.26323417 -0.03410345 0.10200122 0.1431395 0.016782047 -0.113434196 -0.08167735 0.1591216 0.2923541 0.16828716 -0.075828284 0.11488279 0.012608494 0.046470966 -0.10179218 0.100179024 -0.10577961 0.25171134 -0.15716484 0.15495038 0.0071882796 0.08353333 -0.06218303 0.16155443 -0.046359006 0.03657409 -0.14789048 -0.04265748 -0.004508505 0.1652281 -0.13241707 0.32383567 -0.027856179 0.16475485 0.16357572 -0.0122700995 -0.21385054 -0.22527929 -0.09605469 -0.07768229 0.07171606 -0.08933647 0.098693155 0.21880573 0.14294928 -0.074789144 0.087609075 0.06361694 0.0021610395 -0.068736084 -0.3073115 0.1743284 -0.06294656 -0.28353348 0.3530266 0.04066422 -0.15777352 0.15325941 -0.18491791 -0.12904283 -0.27480966 -0.33743122 0.022483304 -0.03776931 -0.013668292 0.034663223 -0.014899448 0.040587258 0.19269058 -0.029985666 0.089724794 -0.06584412 -0.20731571 0.03280944 0.002927843 0.10550936 0.11451562 -0.049655356 0.13164197 0.16019632 -0.013523693 0.06371359 -0.0709382 0.03925984 -0.17309232 -0.010307603 -0.003621315 0.30825338 -0.06694152 0.08274362 -0.06179876 0.0465418 0.11512698 -0.036197446 -0.32845196 -0.113553636 0.20157163 0.1849877 -0.101542644 -0.06887313 0.013576144
yayındayım:0.07952269 -0.10292494 -0.07242569 0.0136241205 0.049761087 0.008472947 0.019160874 -0.04171669 -0.029399063 -0.0066369977 0.034952924 -0.08230024 0.03535879 -0.0107476525 0.03256587 -0.027243251 0.06783906 0.0731227 -0.015682604 0.021229018 0.033400264 0.059386753 -0.0455301 0.02814015 0.047222156 0.0070149004 0.006056466 0.023781506 0.033585265 -0.047044825 -0.1326871 -0.11048597 -0.096894816 0.0036618758 -0.02188976 -0.06669865 0.07879959 -0.042521454 0.03347157 0.0064769485 0.052011285 0.01384803 -0.048626125 -0.04445426 -0.003677498 0.025252711 0.053576466 -0.0718722 0.063401535 0.06532397 0.019273514 -0.026785487 -0.05078708 0.026169335 -0.07118505 -0.052907478 0.067840084 0.07079102 0.14992978 0.048700523 -0.0022798923 0.0134719815 -0.0059535936 -0.00090115936 -0.07669489 0.013061211 -0.02663481 0.058486626 0.03164375 -0.011062669 0.021602137 -0.04152447 -0.053533383 0.08910563 0.0029440154 -0.009341553 -0.016174542 0.032134496 -0.068565734 -0.0011873997 -0.013990089 0.017287783 -0.0013985885 -0.013818605 -0.022123385 -0.05851328 -0.004900256 -0.041354287 -0.05862019 -0.042507324 0.013681895 0.01335061 0.052796736 -0.09529443 -0.03119728 -0.00092935946 -0.021475384 0.032922868 0.055848625 0.056948774 -0.071835674 -0.0056359004 0.013201874 -0.07476512 -0.07464239 -0.029968664 -0.06405881 0.026998993 0.0109237535 0.0964982 -0.019683741 0.04195624 0.036118824 -0.007007715 -0.015246317 -0.08754318 0.05397391 -0.017704519 -0.02060288 0.0047810916 0.10627997 -0.11542478 -0.11017387 0.05468938 -0.00034189562 -0.1398175 -0.03388818 0.06154969 0.003381302 0.009953774 0.060532376 -0.04530832 0.0045526107 0.09001639 -0.07431857 -0.061453592 -0.053475436 -0.04335542 -0.07417641 0.025461644 0.09285694 -0.024900764 -0.036949936 0.027915113 0.022580026 0.08336136 0.045811854 0.049725518 0.074740246 -0.05366772 0.08349781 -0.028313493 -0.03848436 -0.011385628 0.011534587 0.045708872 -0.15879172 0.011885821 -0.055989016 0.06916874 0.042290654 -0.017945306 -0.092313595 0.034039993 0.03552805 0.009252057 -0.03219037 0.06934221 0.026270565 -0.05543565 -0.01262064 0.04465476 0.060028564 -0.091278575 0.0049495012 0.026487375 -0.018840821 0.1391075 -0.016870623 -0.07792595 -0.03762591 -0.023673771 0.0508524 0.01617827 -0.010090526 -0.04056754 0.037884258 -0.043064564 -0.035190996 0.022304853 0.040744923 -0.038946 -0.03511375 0.0025633269 -0.00905316 0.06683139 0.0016858001 -0.01890555 0.033429664 -0.079564445
celik:0.04314896 0.12738216 -0.020266877 0.117472865 0.36457035 -0.028837398 -0.23125084 -0.265398 0.13282469 -0.26376337 0.2058851 0.04106059 -0.1635318 0.104503505 -0.20458357 0.029896604 0.17327236 -0.09560595 0.17834151 -0.11861577 0.20601824 0.14104772 -0.34601635 0.48628554 -0.14367166 0.12062974 0.31572688 -0.1811444 0.012539036 -0.08216265 -0.0012927668 0.017545538 -0.026499277 -0.0462546 0.037866976 0.3154404 0.09002765 -0.16200006 -0.23996359 0.18810107 -0.082324535 0.38958105 0.16615842 -0.19458354 -0.08128111 0.4433387 0.23137586 -0.018647071 0.18753612 -0.067137785 0.27860537 0.23525779 -0.1926056 -0.09290318 -0.05966434 -0.20711106 0.50701505 0.11097901 0.10285349 -0.23476847 0.07845592 -0.06794969 0.44048873 -0.1317049 0.1541519 0.25809163 -0.08192451 0.04344125 0.023033245 -0.05450396 0.05744424 0.0774394 0.07683028 -0.05862531 0.048751783 0.3093737 0.04291517 0.27127004 0.06378488 0.040282715 -0.013190875 0.46082017 -0.16999201 -0.19778112 -0.23665236 -0.13574141 -0.016241934 -0.21603876 -0.1644035 -0.2344101 0.323389 -0.25761336 -0.25426394 -0.021464154 -0.20330001 -0.16502811 -0.15942322 0.18338844 0.45814455 0.21956472 0.043306272 0.37518892 -0.1991468 0.2493432 -0.17627633 -0.01981617 0.045294028 0.060761377 -0.02585507 0.09852768 -0.19842023 0.42282942 -0.2124692 -0.13723212 0.15751441 -0.30805117 -0.00086928764 0.022621032 0.13284133 -0.3924113 0.12647125 0.008436765 -0.15171167 0.2056507 0.080892116 -0.109605744 -0.113990664 0.4654596 0.05362956 0.08520397 -0.09855057 -0.24971107 0.1191307 -0.12980115 -0.21719651 -0.099564254 -0.5424744 -0.114358455 -0.29797775 0.07989955 0.0007590493 -0.22497623 0.2028156 -0.36051902 -0.0047937627 0.39261308 0.3845127 -0.2086409 0.31856003 -0.23662081 -0.257432 -0.019623876 0.133184 -0.22249068 0.08680438 -0.09807389 0.2652389 -0.29317063 0.016134182 0.0009725468 -0.07871812 -0.09880501 -0.14218682 -0.21569331 -0.23536626 -0.10118053 -0.18610302 0.12249103 0.12109382 -0.3091768 -0.17564742 -0.09096999 0.27450156 0.06811143 -0.14742945 0.32308757 -0.2298832 0.0191091 -0.32511243 0.15452828 0.039504457 0.04070016 0.15958098 0.022458563 -0.05130214 -0.23883675 0.11600214 0.29166105 0.11284597 -0.2164781 -0.010592344 0.1290692 0.1355534 -0.16351661 0.31379253 0.2161296 0.24349198 0.069849595 -0.29696766 0.30108503
böyle:0.026914071 -0.13856718 -0.1587685 -0.22808199 0.10967833 0.11372737 -0.033601105 -0.054078493 -0.03899614 0.07883193 0.13892059 -0.007190701 -0.14900675 -0.025586834 0.05849397 0.1009775 -0.08656571 0.06555704 -0.08883084 -0.009232671 -0.02937825 0.028137099 -0.03831678 0.044332158 -0.19495533 0.038314026 0.04371047 -0.010904484 0.037280038 -0.18082267 -0.15113296 -0.22733861 0.06149023 0.017600764 0.1703662 0.070742086 0.21035196 -0.016463667 -0.06010683 0.12831964 0.08409182 -0.15562473 -0.03361107 0.1411717 0.23945239 -0.17308104 0.029581137 -0.15380614 0.12979709 -0.014228622 0.116032206 -0.055514578 0.033333607 0.06115536 -0.13170174 -0.104208 0.06361363 0.0060484335 0.02094686 0.12162816 0.099081434 -0.07564999 -0.019603306 0.16547889 -0.12674513 0.107890405 0.14996222 0.24109592 -0.10486515 0.0175828 -0.0684788 0.047931425 0.18309458 -0.19541621 -0.106296934 0.050559416 -0.044667218 -0.031883243 -0.18969242 0.23221432 0.038295656 0.028695496 -0.007977236 0.13482629 -0.019408468 0.017388709 0.031625677 -0.036583025 0.093670495 0.057568714 -0.034537822 -0.04681902 -0.09994406 0.024452655 0.0556965 -0.13704203 0.15918049 0.15459178 0.13264705 -0.10358171 0.16966642 0.05475626 0.035537455 -0.08141031 -0.09429819 0.010877385 0.08622235 -0.069722936 -0.03306968 0.10280687 0.13366865 0.19610119 0.101389974 -0.05859432 0.039665483 -0.059596043 0.07260992 0.07722436 -0.073210426 0.020636795 0.0134005435 -0.22996113 0.09401193 0.013418213 0.066818595 -0.08744693 0.01511096 -0.11219992 0.38621816 -0.17271912 -0.05413833 0.0066371793 0.114613906 -0.018849097 -0.005215898 0.021200327 0.02342136 0.0020423592 0.015347899 0.12849583 0.2639846 -0.04708357 0.12367119 -0.097034715 -0.061730072 0.0031326422 -0.07116874 0.031606607 0.24906126 0.105753206 0.115573585 -0.14271317 -0.02854734 0.17981759 -0.11752326 -0.17596346 0.07552404 -0.019893566 -0.0019952117 -0.14650968 -0.039746117 -0.105191186 0.08683826 -0.032248743 0.11310987 -0.0074524423 -0.09521936 0.033533048 -0.016586304 -0.28073445 -0.08285886 -0.015650759 0.007863305 0.0134495525 0.15995504 -0.004900577 0.10049409 -0.013792438 -0.023575284 -0.047651205 -0.074358486 0.008832788 0.046348948 0.10703285 -0.020595947 -0.05542517 0.13404742 0.052412882 0.027875563 -0.09362014 -0.029346088 0.043914843 -0.07189756 -0.058482766 -0.03095178 0.1619225 0.083682664 -0.01842381 -0.013651085 -0.016321335
medeni:0.019482123 0.21131797 0.06681562 -0.070432164 0.031244028 0.02474427 -0.1066607 -0.13182318 -0.025548635 0.072321676 0.094452485 -0.05684327 -0.22696398 0.030411286 0.1566458 -0.16513793 0.060512114 0.019111156 -0.0065934216 -0.13352403 0.21606737 -0.08582021 -0.29797134 -0.045988746 -0.11511513 0.10267041 0.16083843 -0.036643308 -0.3249945 0.15264092 0.1648218 -0.128926 0.045730308 -0.054306466 0.14531533 0.10269974 0.009801916 0.03851067 0.14303067 0.18477048 0.06834236 0.012897481 0.22380151 0.11163046 0.2975379 -0.13921441 0.09326109 -0.15528528 -0.04800037 -0.18878676 0.09217625 -0.23589769 -0.15179808 0.10550074 -0.15645628 -0.2104048 -0.15250857 -0.013487542 0.12244181 -0.0039285794 -0.020206142 -0.47154695 0.263218 -0.21470596 0.12843278 -0.014312162 -0.10454433 0.21187985 0.011093453 -0.026168268 -0.069687404 -0.09511511 0.3659147 -0.20438439 -0.23727903 -0.082546145 0.077601105 0.28415585 -0.008757328 0.07954737 -0.040264398 0.099911705 -0.08542393 -0.035681948 -0.07987002 -0.03673878 -0.13386777 0.24539976 0.39698717 0.19418113 0.051228967 0.14684215 -0.10996655 0.17651457 0.057899687 0.061721496 0.094216466 0.08686087 -0.38652378 0.2741711 0.012564456 0.05267045 -0.1265727 0.11970837 0.14548454 0.2342857 -0.08585019 -0.074867144 -0.07958725 0.054769315 0.063389845 -0.050468538 0.10637498 0.12079954 -0.12387349 0.08898479 0.05576688 0.046251807 -0.17876069 0.10693897 -0.014247196 0.02309389 0.08439304 -0.14448015 0.27589038 -0.09428483 0.13999185 -0.1411806 -0.1530301 -0.32434288 -0.40677375 -0.071739435 -0.008654802 -0.23881981 0.10291928 -0.033113427 0.22634764 -0.0730193 -0.15526284 0.02747533 0.37474656 0.113385096 0.008988913 -0.007970175 -0.0780504 -0.17971258 0.1514214 -0.0738869 -0.22392948 0.1309098 0.05119524 -0.041629236 -0.027655562 0.050487194 -0.4065271 -0.0071794163 0.1229947 0.028624633 -0.05724751 0.05299055 -0.109484255 0.068707936 0.15636991 -0.18296243 -0.012002469 -0.09490307 0.049525 0.0139184715 -0.09236705 -0.30659792 -0.17758209 0.15336823 -0.036214214 -0.013981962 0.21574774 -0.14877792 -0.012581069 0.2353731 -0.23672622 0.03604131 -0.20230483 -0.029114991 -0.016191242 -0.23812462 -0.0673945 -0.047781944 0.13484041 -0.08719069 0.107392795 0.06721172 0.062356554 0.17966846 -0.10120636 -0.18483178 0.17662783 0.05185495 -0.22541498 0.10165396 0.13457467 -0.15291731
vasat:0.1370991 -0.0019823855 -0.07930844 -0.096333206 0.3818257 -0.03624678 -0.2682348 0.1491858 0.044570606 -0.109237745 0.21566689 0.083655655 -0.12907432 0.38447475 -0.19359218 0.12233536 0.17034477 0.115596615 0.01079848 0.039607637 0.13606745 -0.009181278 -0.39159968 -0.12163789 -0.1591912 -0.11205896 -0.0885088 -0.24147831 0.113191396 -0.120593585 0.3061446 -0.07810643 0.17743921 -0.30342913 -0.059566062 -0.4913101 -0.18006873 -0.20581572 0.17408577 -0.08934405 0.020147467 0.07383242 -0.18048866 -0.1374408 0.059560303 0.14670351 0.050699145 -0.22322948 -0.5303283 -0.044802397 -0.062050216 0.1237611 0.22589415 0.030670615 -0.12466839 -0.40243152 -0.23354001 -0.15823136 -0.27835464 -0.02511919 -0.2405055 0.01963653 -0.008176545 0.15160625 -0.10179868 0.07839399 -0.022174066 0.041530967 -0.14025024 -0.0828355 -0.18830463 0.16177087 -0.19892672 -0.0040936004 -0.2583368 -0.065987214 -0.071832076 -0.055305064 0.20550513 0.18778001 0.19205746 -0.108028166 0.14613974 0.0050854404 0.21634658 0.10469374 -0.011767515 0.12545969 0.38941088 -0.039990056 0.07702127 0.0887226 -0.027541546 0.32720524 0.16345647 -0.103228815 0.0996951 -0.24196476 -0.012422412 0.16834748 0.16297129 -0.08697166 0.105341315 0.057109702 0.18784118 0.016737884 0.23593587 0.19887461 -0.21540092 0.030016577 0.06392914 0.011056997 0.043207526 0.053614397 0.14932095 -0.20114982 -0.019956142 0.066329904 -0.24350825 0.07385752 0.23702039 -0.018751843 0.33899134 -0.027291609 -0.21041685 0.057480287 -0.1307934 0.29936844 0.23233224 0.08554413 -0.15649164 0.05301824 -0.08344625 -0.039224125 -0.034974072 0.14245336 -0.0151305655 0.28074777 -0.0378204 0.1898909 -0.03475763 0.17245533 0.007608607 -0.13488069 -0.03778269 0.28559595 0.123541564 0.0032554942 0.052010328 0.08246837 0.1622755 -0.0465834 0.18399405 0.2214854 -0.27514997 -0.083645545 -0.04161197 0.10477881 0.056614485 0.01931992 -0.22242865 0.028363643 0.07820154 0.060409248 0.2764397 0.15440546 -0.044604644 0.13503113 0.0012508075 -0.0022787836 -0.05343005 -0.0802807 0.050520923 0.2690202 -0.039533768 -0.09517042 0.0659485 -0.0930215 0.022854293 0.08003495 0.21497098 -0.2386052 0.2072079 -0.024347655 0.028086072 -0.04017745 -0.02670207 0.32846677 0.20445022 -0.28658837 0.13610296 -0.008048186 -0.16270141 -0.23209408 -0.014162138 -0.3732624 -0.3692143 0.29770672 -0.17698106 -0.042556148
güneş:0.12524742 0.384769 0.15059042 -0.098033175 0.10791288 0.15201566 -0.018033683 -0.06679526 -0.0708417 -0.015018935 -0.15562008 0.2886451 -0.06085618 -0.026108759 0.060572673 0.19945754 0.3296827 -0.13862264 -0.2628224 -0.24835005 -0.32935184 0.27807233 0.12308556 -0.03315384 0.09586388 0.20317443 0.0956512 0.011034207 -0.018851418 -0.0563547 -0.2589298 -0.19965565 -0.17602761 0.0016752816 0.17457055 0.1526499 -0.5339633 -0.067170545 -0.06708326 -0.071713574 -0.1729643 -0.24719271 -0.22589092 0.032547094 0.33366677 0.09539581 0.24959446 -0.18299581 -0.16105203 -0.14003165 0.22274765 0.22624506 -0.16405708 0.029830603 -0.09119434 0.05570608 0.25631887 0.3018185 0.104589134 0.22527835 0.06261766 -0.24788806 0.025316078 0.08966384 0.09121297 -0.04228445 -0.114325196 -0.06334556 -0.19559136 -0.19566882 0.1710955 0.060162447 -0.043939713 0.018616337 0.34637988 -0.16691801 0.010256138 0.074000664 -0.107708566 -0.26000488 -0.26084465 0.20951967 0.060756575 0.22232914 -0.17558718 0.03672388 -0.26744267 0.06309518 0.073725045 -0.040557556 0.130718 0.0042218417 -0.0932622 0.0259084 -0.20036268 -0.0053715277 -0.3067064 0.17311448 0.07266559 -0.34740877 0.08770315 -0.30400002 0.11609753 0.020104729 -0.07752197 0.13261254 0.19420378 -0.16316001 -0.18655884 -0.14768904 0.070830114 0.30476904 -0.22274888 -0.075278856 -0.062120467 0.109106965 -0.07319518 -0.14389522 0.116737224 0.37149456 0.19999026 -0.016869793 0.11495916 -0.40801063 -0.06398627 0.24789838 0.20340148 0.17341451 0.086007215 0.04605615 -0.09096009 -0.13804238 0.39929077 -0.27047813 0.18297689 0.08172904 -0.17671141 0.06706414 0.12840262 0.34157878 -0.1357966 0.15527757 0.026991405 -0.057414185 0.002189214 0.045074087 0.09620176 0.18255833 0.026540915 0.5147133 0.073518954 -0.1412273 -0.15792345 0.012552116 -0.23476727 0.12642917 0.058482453 0.23951061 0.04114564 0.1939874 -0.18469988 0.021473853 0.036045227 -0.19046089 -0.17800042 0.2958047 -0.08768232 0.43983445 -0.09273965 -0.14767982 -0.0051954067 -0.0012651833 0.04278143 0.10996538 -0.39490497 0.08468859 -0.41518766 0.066912584 0.03628905 -0.08001777 -0.30084956 0.08205817 0.05566263 0.07661617 -0.030994914 -0.41591656 0.01579494 -0.32800943 -0.033346806 0.054085374 -0.17860971 0.028056752 -0.08359763 0.1966475 -0.10712928 0.25413883 -0.15613425 -0.2352901 -0.34696946 -0.03827071
alınacak:-0.16648671 0.21121937 -0.24068953 -0.04183509 0.19663675 0.07236534 0.09029754 -0.1403655 0.13181254 0.0614776 0.43391016 0.10617488 0.18447338 0.2006795 0.18207803 -0.05520541 -0.101935714 0.086679764 0.007594891 0.07116967 -0.20032685 -0.17389856 0.33927527 -0.38036412 -0.2980344 0.03811132 0.33885399 0.0044641946 -0.068246655 0.26089436 0.26600847 0.003529743 0.07139203 -0.047008634 0.12875271 0.20785332 0.072765104 0.02087269 0.019115532 -0.011985252 -0.098329015 0.20226921 0.15181963 -0.014894004 0.022022035 0.1226976 -0.05621406 -0.17929393 -0.023254791 0.019537821 -0.2279565 -0.17823438 0.19320408 -0.17327157 0.14785683 0.015274368 -0.24300103 -0.1371538 0.023997433 0.16961335 0.10715416 -0.004026605 0.32332936 0.09741992 0.052281503 -0.10385018 0.11540021 0.098499976 -0.26382595 -0.15460427 -0.19749217 0.28419 -0.04699712 -0.098119415 0.07359888 -0.22506171 -0.22879504 -0.07446307 -0.3011799 -0.014872582 -0.016278638 0.08226794 0.02724081 -0.3151358 -0.06869924 -0.057687826 0.23371732 -0.16853654 0.17731683 -0.090420276 -0.052808505 -0.22601281 -0.19128008 0.16891512 0.072892934 -0.030421423 -0.38404962 -0.25299516 -0.01267513 0.19759975 0.05720487 0.34336954 0.023541123 -0.033972956 -0.013493171 -0.015186109 -0.15889484 -0.20574388 0.26681766 -0.11460562 -0.34187913 -0.052648634 0.076314375 0.260541 -0.083117016 -0.067165904 0.17142582 -0.052917853 0.14977361 0.13521908 -0.14509389 -0.019871358 0.076277055 -0.083212115 0.06141196 0.1590333 -0.07864862 -0.05237513 0.013436024 -0.37721783 0.082529195 -0.12545352 0.38272855 0.11366984 0.20706828 -0.063599974 0.028457662 -0.3365829 0.10145503 -0.073781505 -0.14110312 -0.0938265 -0.15510271 -0.107493214 -0.16112052 0.39623445 -0.16148265 -0.0363363 -0.018571509 0.0049840026 -0.16687912 -0.10959765 0.15503417 -0.2166912 -0.005131556 0.25358906 -0.12322565 0.08468892 -0.04659349 0.2597096 -0.09536862 0.4413727 -0.10030867 0.103540905 0.30563498 0.048516724 0.0021666058 0.14667636 -0.037310835 0.034387153 0.19828503 0.063875996 -0.17057052 -0.01381511 0.073029436 -0.041920714 0.16041175 -0.10944698 -0.28742552 -0.026564721 -0.046106994 0.19622016 0.02375895 0.011498532 -0.19459826 0.13693045 0.07444248 -0.28069243 0.09211599 0.18195882 0.06052955 -0.035262067 0.026260642 -0.3533577 -0.14166982 -0.22886065 -0.1916759 -0.010996801 -0.2843843 0.12914377
yüzüne:0.02857552 0.41397545 -0.07852404 -0.21893582 -0.18289056 -0.09410604 0.030185344 -0.13822962 -0.14010493 0.087568186 0.22681774 -0.096706994 -0.091731355 -0.083450675 0.10766192 0.051134095 0.19209416 0.17253986 -0.107559405 -0.29987565 -0.05559085 0.081888065 0.08353666 -0.052714776 -0.012151768 0.039645407 -0.052705955 0.05660464 -0.19983296 -0.06998736 0.089601524 -0.027355285 0.016069088 -0.057711907 0.08744636 -0.059406146 -0.012693866 0.03960806 -0.16739602 -0.35869828 -0.040247913 -0.34960914 -0.14483197 0.20877703 0.19182035 -0.013456372 0.1671254 -0.24533723 -0.1640569 -0.004776532 0.24876665 -0.070478484 -0.12157463 0.10061461 -0.15400165 -0.15335552 0.39283925 -0.096948706 -0.14362082 0.34782773 0.2420138 -0.104351684 0.053144854 -0.07562411 -0.04821215 0.082406 -0.14588699 0.14877085 -0.07416677 -0.016813822 0.110079505 -0.065397575 0.120641306 0.017569434 0.16620569 0.1523252 -0.036059964 0.20703293 0.07967007 0.012522607 0.026364284 -0.17027979 -0.34761724 0.12387224 0.100413464 0.23356976 -0.16884586 0.12053862 -0.021982279 0.3578552 -0.0007760972 -0.22329935 0.0070802737 -0.10122963 0.05475066 0.19095793 -0.0079658665 0.085951276 -0.26482958 -0.029364102 0.20359115 -0.09942242 -0.0033836563 -0.18823259 0.1680836 0.09105853 0.03761462 0.20159692 -0.3210642 -0.04602818 0.18847317 0.35665464 -0.014686914 -0.1669192 -0.038592983 0.14273238 0.09333634 -0.057499688 -0.08278896 0.13233474 -0.04841698 -0.056411065 0.59750694 0.029555008 -0.0549755 -0.35988373 0.15461047 0.08222852 -0.1345186 0.2254669 0.21828048 0.17687038 0.17554817 -0.28342193 -0.07952914 -0.18622042 -0.15852402 -0.2838017 0.1988195 0.25022268 -0.16297565 0.048246317 0.0033645658 -0.10070333 0.09752777 0.039698035 0.20927636 0.41924766 0.006820323 0.1857613 0.08215676 0.12870505 0.23530868 0.051011816 -0.054222878 -0.08628706 0.012408848 0.021183431 0.037552662 0.06756602 -0.15959844 -0.0054613296 -0.42128214 0.016287768 -0.08641445 -0.075660214 -0.2025614 0.09048889 0.009955894 -0.23809463 -0.01862581 0.11279171 0.24135672 -0.14308697 -0.11446136 0.04836854 -0.42005786 0.10818373 0.1020384 -0.102571756 -0.055231813 -0.034156576 -0.027067939 -0.08535383 0.06852331 -0.17570525 -0.23484609 -0.074796475 -0.022419984 -0.07519994 0.22199813 0.14716879 0.21674678 -0.09923228 -0.021351317 0.22102833 -0.037705228 0.11584739 -0.19799685 0.018761141
o:0.15223297 -0.081567265 0.07501575 -0.18678437 0.15025105 -0.040743586 -0.11962273 -0.019376496 -0.12131684 -0.0053268773 0.34593672 -0.12908643 0.05461445 -0.012099364 0.055015087 0.21806613 0.07173561 0.18653241 -0.114413776 -0.096385196 0.03348062 0.1990901 -0.03838551 0.042924985 -0.14363192 0.034985192 0.038290523 0.024872547 0.00843436 -0.07403627 -0.17476232 -0.31111872 0.103452794 -0.1352886 -0.028766006 0.020241011 0.16737081 0.075517036 0.026036741 0.00022681469 0.025521964 -0.0769917 -0.104528084 0.087892435 0.122442245 -0.17145719 -0.07142353 -0.16396217 -0.030303681 0.032360096 -0.0047299927 -0.0021692407 -0.083276466 0.046770245 -0.09538706 -0.19265124 0.07201007 0.0055618114 0.0658502 0.19376515 0.17246588 -0.2062749 0.089658074 0.2210124 -0.026342059 -0.072239585 0.14020576 0.2500742 0.062514514 -0.023681568 -0.17800598 0.05469915 -0.041570976 -0.2533624 0.072246775 0.040007014 0.06178941 0.027809212 -0.07904499 0.03289609 -0.021626338 0.15634418 -0.02559737 0.028323652 0.11313972 -0.05759349 0.010240076 0.01024698 0.13546416 0.00046067135 0.01583438 -0.0009931334 -0.042838465 0.0022169594 0.042078085 -0.18451476 0.09677897 0.1922896 0.25797585 -0.11560702 0.11762382 0.033905458 0.012532217 -0.20407091 -0.12275137 -0.07048828 -0.108375706 0.21389829 -0.011445569 0.12978262 0.10998861 0.09486241 -0.047773648 0.035501543 0.024829483 0.04097049 0.07877226 -0.15678518 -0.08528816 0.23161967 -0.003151673 -0.08011531 0.14419988 0.12032614 0.07652031 -0.25378036 -0.057243843 0.026093058 0.17573522 -0.013622942 0.013694756 -0.06236524 0.10371573 0.09808461 -0.02954254 -0.021122357 -0.037877433 0.051101085 0.045935392 0.24027862 0.04922518 0.114314444 0.086648226 -0.09009506 -0.06609521 0.1335563 -0.036600683 0.06726111 0.11478599 -0.124202095 0.034174602 -0.010536445 0.009585397 0.26050898 -0.08668532 -0.13248566 0.14601235 -0.2117007 -0.28102484 -0.18397404 -0.12547125 -0.11892031 0.010540781 -0.1683866 -0.35664865 0.04608423 -0.17976335 0.11396652 0.04901439 -0.0039204354 -0.009346467 -0.03794542 0.07953866 0.024697583 0.039762154 0.08703874 -0.25507602 -0.01338951 -0.08933659 0.036520496 -0.017747322 0.052273747 -0.056931164 -0.087922804 0.011544946 -0.06335458 -0.0057112477 0.04000969 0.015625933 -0.10595678 -0.11897664 -0.15547489 -0.11169645 -0.104391836 0.0069834385 0.17145851 0.08870536 0.05786658 0.1843353 0.0060914163
bendenizi:0.21569756 0.17068174 -0.10032373 -0.12141082 0.09893474 0.07244108 -0.058012895 -0.20157585 0.10286986 -0.10985771 0.15033853 -0.057052657 0.053822234 0.11152202 -0.032329492 -0.041739926 0.074683085 0.13286372 0.062193003 0.0057515367 0.037812363 0.13293633 0.04487903 0.110104956 0.048679765 -0.0006080538 -0.11201837 0.0770036 -0.036127757 0.011307811 0.058041587 -0.21540673 -0.008761028 0.15689293 0.06884083 0.07046492 0.15102214 0.1219941 0.019703675 -0.025339909 -0.091064215 -0.13213718 -0.050061055 0.019266784 0.17360282 -0.1645586 -0.09512206 -0.059151724 -0.024174223 -0.05006866 0.091977954 -0.07122051 -0.04693707 -0.10118869 -0.3348005 0.05739409 0.07458159 0.1044764 0.20685185 -0.048895933 0.058686312 -0.13381657 -0.15412678 0.042509712 -0.013362821 0.18072346 0.007961908 0.041519325 0.115386076 -0.12932825 -0.04076941 0.045643564 -0.19794588 -0.045802843 -0.0048210593 0.029422427 0.022331435 -0.11552519 -0.09243591 -0.021693446 0.026070997 0.097275496 -0.02978262 -0.019732716 -0.11383367 -0.06495259 -0.087329075 -0.02740077 0.31283313 0.08391997 0.04512644 0.037558947 -0.0008529841 -0.030278156 -0.051319867 0.043790106 0.0046172105 0.04028908 0.20295456 -0.0746151 0.029917473 0.19240582 0.014010383 -0.19878487 -0.08640761 0.10077187 -0.12071579 0.021236934 -0.11556153 -0.07815332 0.31142408 0.15311922 -0.030645467 -0.07213526 0.057955734 -0.2149226 0.26042244 -0.13607992 0.07899807 0.10685612 -0.071597844 -0.10981988 0.19708633 0.03579202 -0.100481816 0.13648935 -0.02257051 -0.04826248 -0.023181649 -0.07339683 0.10166701 0.1327712 -0.12680332 0.100952424 0.06668176 -0.15307122 -0.07474576 0.109733485 -0.13130829 0.024341077 0.009904402 -0.05782827 0.10780391 -0.16853377 0.021715485 -0.14528832 0.06902079 0.074645646 0.07409579 -0.16291404 0.16998488 -0.034938462 0.088675626 0.0011694625 -0.06749259 -0.080836676 -0.05595482 -0.044400647 0.075306356 -0.08411621 -0.2129019 -0.17438266 -0.11365874 0.16053958 -0.09126454 0.0085253 -0.01560868 0.03507714 0.102174476 0.008441499 -0.19287695 -0.0076849223 0.18648495 -0.16566736 0.11312189 0.15958542 -0.074707486 0.10228175 0.011653593 0.065304264 0.1268851 -0.09266446 -0.17937666 0.11007811 -0.014710502 -0.15559171 0.004259852 -0.0141254105 -0.063455395 0.077111125 0.040141128 -0.064980075 -0.048229847 -0.08954584 0.06092548 -0.022199348 0.09214711 -0.0075320047 -0.016195476 0.09154952
hocamla:0.28209946 -0.10773378 -0.11137621 -0.14486392 0.10369164 0.24992168 0.061905276 -0.3436091 0.15074475 0.2462373 -0.14278027 -0.22570919 -0.076794215 -0.17427066 0.022616765 0.008468937 0.08887052 0.245877 -0.14108446 -0.08074499 -0.16168335 0.11203454 0.06862636 0.16037077 -0.07555473 0.020674674 -0.17648569 0.032332327 0.07560959 -0.45669374 0.1351254 -0.15142764 0.041847035 0.077388845 0.32128423 -0.09841824 -0.1238038 -0.045950565 0.044310305 0.0023086828 -0.0013862882 0.06762716 -0.15975396 -0.2656105 0.28997403 0.07995766 0.009324011 -0.16712491 0.20046769 -0.15167812 -0.011846264 -0.10704556 -0.089310445 -0.04866263 -0.26394656 -0.0315873 -0.016042734 -0.11142957 -0.17979129 0.3315205 0.07331902 -0.5056422 -0.04353915 -0.12584248 -0.23124407 0.20475201 0.19577467 0.098751016 0.07448541 -0.03188475 0.048405472 0.2503417 -0.41874278 -0.18466909 0.028097298 0.018999783 -0.09455603 -0.027172644 -0.061404962 0.26183987 0.38575622 -0.0596348 -0.018660564 0.20066328 -0.21856387 0.055010226 0.1722302 -0.006818813 0.17583281 0.10681315 0.12474496 -0.13826126 0.034142505 0.120602205 -0.2438627 0.0079962425 0.19505249 0.012026856 0.18816562 -0.07007041 0.13079202 0.10331307 0.1517617 -0.07940259 -0.18253906 -0.24488598 0.04887199 0.015815938 0.049804453 0.040627632 0.37641197 -0.24284147 -0.15809447 0.02428276 0.26497915 -0.062263425 0.032640066 0.08328103 0.028170686 0.06582297 0.2501391 0.04046252 -0.07309757 0.08110772 0.12052509 0.23419343 0.18067104 -0.117353834 -0.01696491 0.04181617 0.019119995 0.16902372 -0.08529011 0.29477707 0.026095198 0.059448972 0.06127236 0.056417473 -0.07767263 0.022399891 0.10841459 -0.06559632 -0.081332296 0.08710976 -0.06593457 0.11509383 0.16381261 0.06015252 0.26149777 -0.2635046 0.020994784 -0.022253836 -0.12232377 0.21329786 -0.012484528 -0.08771638 -0.003932337 -0.021847034 0.003040391 -0.055874307 -0.21540354 -0.20259772 -0.25983804 0.08696072 -0.059614323 0.111960635 -0.19725746 -0.15888652 -0.2561002 -0.020348078 0.049073268 -0.041245963 -0.005986474 -0.09174308 0.09188944 -0.039620556 0.035695586 -0.10996406 0.17847627 0.03716364 0.029235497 -0.07140858 0.020026904 -0.035281986 0.09472007 -0.098927 -0.046210285 0.03808278 -0.19748195 0.2084621 -0.23036148 0.14026703 -0.1314592 -0.29924807 -0.113884896 0.21452995 -0.31369033 -0.4699361 -0.35431144 -0.138934
beğendik:0.31732246 -0.06538283 -0.07103513 -0.15188386 0.0007934069 0.22137134 -0.00051026075 -0.22389501 -0.22937033 0.15593785 -0.07331571 -0.19162399 0.107499704 -0.029855879 -0.08025352 0.18020049 -0.10369318 -0.14658575 0.046596486 -0.023791382 0.0151423635 0.103003554 -0.26202902 0.12203391 0.08470843 0.22254024 0.12977514 -0.16047113 0.09192533 -0.35402793 0.14695817 -0.08946862 0.4946377 -0.25307834 0.05357732 0.08179954 -0.025122022 -0.21564505 0.25210884 -0.22687633 -0.2035069 -0.08246075 -0.3507763 -0.2072956 -0.23663616 0.17261152 0.058001958 -0.06450806 -0.16601764 -0.0001611311 -0.088630095 0.13298984 0.113910094 -0.08972142 -0.27300537 -0.1354882 -0.19789468 0.054675825 -0.28805307 0.17071073 0.11566128 -0.049468074 0.033661723 0.08747397 -0.15553845 0.050974082 0.20765324 0.10092362 0.09659308 -0.07579779 -0.03793752 0.22115442 -0.15881482 -0.10812633 -0.104405716 0.4172064 -0.21936291 0.099516675 -0.047195725 0.18844499 0.3107825 0.1154897 -0.003725463 0.30438715 0.033492777 0.24577679 0.40628344 -0.02947229 0.4612276 -0.1094349 -0.11935605 0.07448388 0.10798035 0.10063551 -0.020576656 0.06884352 -0.093612954 0.3722633 0.0805206 0.05457482 0.20138352 -0.0648958 -0.13405696 0.10613547 0.03186414 -0.072698765 0.13690518 0.069633156 0.15642625 0.23112188 0.20627992 0.0020375527 0.24026234 0.03795635 0.12790404 -0.013269353 0.11121554 -0.2395534 -0.14122741 -0.048972417 0.071064204 0.22711906 0.011726279 0.18839443 0.24569786 0.13458203 -0.04892042 0.02448184 0.1909521 0.06986515 -0.20053825 0.046403226 -0.16229568 0.06783952 -0.060871296 0.076611675 -0.36255538 0.078492306 -0.28717846 -0.20369822 0.171617 0.0729523 -0.32507643 0.118887275 -0.23861916 0.17213216 0.23378514 0.15780894 0.013659685 -0.28748813 -0.0134872105 -0.10168323 0.2094281 0.28587016 0.07084228 0.0052497284 -0.087282486 -0.20992851 -0.20055251 -0.12970571 -0.067845695 -0.26080883 -0.36617056 0.040446863 -0.07943717 0.09542785 -0.45943797 0.10972293 0.35739318 -0.26658842 -0.11981164 -0.38261887 -0.12601784 0.25662622 0.039735757 0.09305979 0.036488425 -0.035401035 0.035140123 0.029326795 0.23486376 -0.17483145 -0.03356612 -0.07702766 -0.17789191 -0.17037907 0.28473252 0.06344906 -0.14110568 0.16352707 -0.1191602 0.30946943 -0.04045409 -0.178797 0.073040575 -0.030837493 -0.029169504 -0.52887654 -0.10749465 0.10455803
atmak:-0.10799816 -0.104621165 0.11393749 0.06683066 0.3716661 -0.18352026 0.28861314 -0.44701666 0.18784252 0.20093685 0.2831207 0.07080148 0.06835049 0.23476206 -0.16045085 0.29871 -0.21239424 -0.06516878 -0.030170524 0.17511466 -0.044860896 -0.047326777 -0.36079946 0.06492681 -0.27049428 0.07589651 0.22723092 0.2753147 0.089068994 -0.039603144 0.018126419 -0.042786047 0.18614012 0.20463558 -0.17783438 -0.18158026 -0.007999374 0.12023239 0.15039054 -0.09821008 -0.022994976 -0.2229434 -0.2365442 -0.04610319 0.21407352 -0.16153307 0.06082326 -0.16143723 -0.15430082 -0.15628032 -0.24644127 -0.105378635 -0.028939882 -0.1677018 -0.089998774 -0.2341511 0.2745201 -0.020664781 -0.03843606 -0.24957177 -0.19997397 -0.48300043 0.0013835198 0.12057104 -0.1858791 -0.12466229 0.1294597 0.1389314 0.06628826 -0.04872294 -0.04790104 0.05059375 0.13746817 0.2988426 -0.058107045 0.26549923 0.13233367 -0.32576457 -0.15626411 0.09724201 0.0448142 0.088778734 -0.37880653 0.19794095 0.045123063 0.11106172 0.31400964 -0.03292782 -0.16765063 0.2788521 0.03904248 -0.19214869 -0.07846819 -0.26025185 -0.30099764 0.1107602 -0.0746339 0.082925886 -0.019714775 -0.06963812 -0.05850342 -0.00023235891 0.07005443 -0.11423973 -0.21662982 0.00442247 -0.14410855 -0.14949061 0.14808625 -0.06846136 0.11435553 0.29221788 -0.047745872 0.1459161 0.2829373 0.34035927 -0.24934213 -0.19242291 0.03597946 -0.23311827 -0.46689606 0.04715183 0.29481044 0.3926352 0.15510093 0.35504758 0.24170153 0.124881364 -0.046667363 0.25722235 -0.19298537 -0.003916917 0.18444745 0.058614846 0.13601804 -0.59208167 0.4227267 0.18905996 0.26931715 0.24340917 -0.026407354 -0.16180305 -0.11036196 0.017787235 0.26035303 0.2301077 0.327626 -0.025014542 0.090033345 0.26484692 -0.057029508 -0.06516372 -0.323808 -0.25447798 -0.29292366 -0.07915733 0.04197919 0.16849756 0.10521425 -0.124889396 0.161701 -0.15400688 -0.048324615 0.029389352 0.20169903 0.038914226 -0.19179516 0.18660039 0.12426327 0.0012084504 -0.29605898 0.07331414 -0.18101782 0.09140446 -0.14966632 -0.18223023 -0.08260485 -0.3797541 -0.2976235 -0.20063017 0.0623345 -0.12533158 0.03157231 0.12097518 -0.053129695 -0.010186468 -0.124805465 0.13696355 -0.09068807 -0.057982225 -0.075740814 0.11806912 -0.07089583 -0.069019325 0.05615936 -0.38769996 0.011643275 -0.33095583 -0.22623667 -0.085918784
suçum:0.16034411 -0.13816758 0.32715932 -0.106077 0.2927828 0.45915994 -0.07456165 0.109562464 0.2661262 0.17684373 0.037117798 -0.20002078 -0.15148762 -0.13920236 -0.24352072 0.39164522 -0.04884894 0.3773492 -0.076920584 -0.09909416 -0.18177539 0.3927291 -0.25872886 -0.24016237 0.061413713 -0.0711336 -0.27982464 0.34521264 0.22675198 -0.08229593 0.030933537 -0.24915138 -0.20173302 0.26292545 0.09420703 -0.05901564 0.22180516 -0.23000963 -0.178057 0.3321368 0.12971531 -0.6468826 0.060864408 -0.09712332 -0.060433283 -0.11008769 -0.18769011 -0.20632972 0.17778492 -0.056739338 0.6270615 -0.087029375 0.05828871 -0.4025275 -0.15379037 -0.22997364 0.052971654 0.12765224 -0.05660745 0.120227024 -0.36392626 -0.0003478548 0.44698232 -0.2114135 -0.24637718 0.32356274 0.23393872 0.6867652 -0.06691877 -0.05151992 0.34514034 0.24369544 -0.26624796 -0.31679 -0.11133784 0.26400477 0.24078539 -0.07239084 -0.066626586 0.33164322 -0.0887227 0.38367876 0.2744344 -0.19206041 -0.13845223 -0.15209426 -0.011555228 -0.110921405 0.17915368 0.30316344 -0.08585803 -0.015923247 -0.3065598 -0.13190292 -0.5906637 -0.13300234 0.355659 -0.021416763 0.09109285 -0.019011334 0.08950727 0.16977456 0.10760139 0.33995 -0.29086274 0.13508976 -0.08720721 0.15419708 0.09727231 -0.31014028 0.15649335 0.101838134 0.024863433 -0.1313758 0.14267352 -0.049827646 -0.020439753 0.016490433 0.29712883 0.19729394 0.068850294 -0.4513442 -0.3064092 0.24989188 -0.19560406 -0.1712554 -0.003761996 -0.118027166 0.13051061 0.24611238 0.29474297 -0.006657427 -0.002221579 0.13202833 0.11673002 -0.07490366 -0.3489767 0.07851342 0.31655622 0.07784685 0.37122822 -0.5697327 0.22797829 0.17093356 -0.03669896 0.05321316 0.37605235 -0.04631905 0.20784701 -0.17541689 -0.0478315 -0.55170405 0.15304242 0.41047883 -0.2622037 -0.16476099 0.36871928 -0.25339517 -0.0426233 -0.07113656 -0.10120165 -0.12025258 0.004983984 -0.3061909 0.2725314 -0.091726676 -0.015397949 0.29226476 -0.03574826 0.013868665 -0.31305012 0.03458108 0.09833872 -0.22857346 0.110176966 0.35644844 -0.0011624858 0.17935921 0.22886522 -0.109702215 -0.18483678 0.013633485 0.26728424 -0.07948087 0.10074076 0.5287706 0.36451796 -0.3127432 -0.06690519 -0.11744409 -0.141798 -0.30952233 -0.25116208 -0.17091495 -0.005017707 -0.04489132 -0.25479364 0.178471 -0.2627722 0.10414783
kısmetse:0.6140797 -0.43243998 -0.030763326 -0.30030018 0.34149337 0.15723419 0.33102733 0.097218156 -0.22224705 0.32645616 -0.11468574 0.017368173 0.13029073 -0.31268945 0.062088985 -0.09623354 0.04100264 0.014755083 -0.16043824 -0.07981049 0.09854679 0.22084749 -0.055724557 0.37099618 -0.02949824 0.062020615 -0.15058115 0.28491068 0.15436366 -0.13335237 -0.07153954 -0.5332994 0.020168496 0.15243466 -0.046371877 0.116652146 0.27077186 0.02418806 0.048392117 -0.40551075 0.09210745 -0.024842232 0.05946984 -0.22807914 0.13688219 0.08880807 0.32703444 -0.32388392 0.15899543 0.1335112 -0.059164286 0.010546617 -0.3786245 -0.08947578 -0.04048669 0.036646783 0.07072702 0.03396575 0.34546214 0.0016737946 0.18862012 -0.09551414 -0.02025887 -0.07374212 -0.012336468 0.0030251115 0.10317231 0.058969814 0.08995217 0.0049331537 0.09449555 0.0337881 0.09119893 -0.20914435 0.013919908 0.31774256 0.07925702 -0.070186995 -0.19014546 0.23559006 0.16693398 0.087415464 0.008857776 0.27143088 0.3247911 -0.09547702 0.2363625 0.09850408 0.20972118 0.13548324 -0.09309411 0.09084253 -0.19697703 0.053693093 -0.06490117 -0.20869371 0.0787229 0.16305953 0.10921556 0.03820144 0.09051863 0.22498782 0.10369641 -0.15748568 -0.113717705 -0.27501348 0.0026354545 0.09678984 0.15246922 -0.040178936 -0.046423893 0.09726743 0.23262817 0.19722064 0.26921555 -0.022898398 0.2369175 -0.057285402 0.1449902 0.16193187 0.15247962 0.021151595 0.0040045725 0.16477421 0.2934593 0.18764375 0.07187902 0.05342647 0.019506406 0.001220057 -0.0014991853 0.063638695 -0.08458296 0.28293195 -0.22549836 0.19592246 -0.16374034 0.1265456 0.06433092 -0.016572054 0.24628119 0.050737385 -0.09027613 -0.2748156 0.0526027 0.16638517 0.25951102 0.06495294 0.24398056 -0.018613478 0.2857751 -0.050164856 2.300139e-05 0.1821901 0.19354886 0.02975291 -0.19808705 -0.16855556 0.024312664 -0.092120506 -0.09712225 -0.03364079 -0.07795908 -0.17372389 -0.28579414 0.17333783 -0.22122267 0.075188495 -0.11994204 -0.2916465 0.064084485 0.075353235 -0.0733271 -0.2240429 0.01971129 0.37545753 -0.11192735 0.23473743 -0.030574827 -0.06405189 -0.18010321 0.11784129 -0.30896518 -0.11678731 0.047827963 0.037697706 -0.21887477 -0.03377298 -0.15112813 -0.037732057 -0.27972513 0.21045586 0.035934165 -0.054746106 -0.15586121 0.029665275 0.15218212 -0.15913089 -0.1308318 -0.2380992
süper:-0.07428419 0.00892793 -0.10780743 -0.18772648 -0.027277395 0.081750534 -0.3285497 -0.26074407 0.13971113 -0.22013593 0.1649116 0.24554342 -0.16543548 0.09407388 -0.36500093 0.08983802 0.05257488 -0.35806254 -0.3635558 -0.052487224 -0.18992466 0.2535752 -0.23475629 0.28966194 -0.025752902 0.23970519 -0.12302386 0.09605421 -0.12854648 -0.0071046893 -0.02845255 -0.036885537 0.2775655 -0.3274511 0.12980504 0.043914042 -0.02162687 0.16474634 0.13302465 0.040432636 -0.16095205 0.16918652 0.065477245 -0.07805663 0.12202602 -0.10423061 0.08561926 -0.14971022 -0.56172246 -0.09619255 0.2542487 0.15401658 0.116764925 -0.011552021 -0.06705641 -0.26815623 -0.033703025 -0.08504344 0.077751495 0.14425069 0.14453138 -0.09027144 0.098244175 0.05032125 0.11092014 -0.25602862 -0.006798063 0.01686925 0.0103148995 -0.15263385 0.1289849 -0.009878121 0.059847362 -0.27472204 -0.024323571 0.10022941 -0.19159223 0.123505294 -0.0055519124 0.13321383 -0.093783125 0.354167 0.06034915 0.1922585 0.032343175 0.055745125 0.10209643 -0.008763923 0.10059708 -0.054848738 0.059839908 -0.0046900716 0.098311126 0.12988293 0.23751953 -0.1263815 -0.06870734 0.3644911 0.00447165 -0.15892388 0.3679333 0.012013363 -0.023862861 0.31565443 0.11267196 0.08556601 -0.090426005 0.10077889 0.053771973 0.15007924 -0.019458603 0.20635276 0.093156196 -0.050646704 -0.017642112 -0.08059562 0.10102278 0.09440848 0.1582653 0.04658655 -0.022627462 -0.23398122 -0.061353724 0.08436703 0.04223355 -0.15931997 0.03397427 0.21969329 0.11966431 -0.009112904 -0.07597048 -0.2451305 -0.05787887 0.09149948 -0.14505643 0.16627967 -0.24048044 0.12528045 0.027868275 0.35281262 0.012490177 -0.014427922 0.19664747 -0.18750955 -0.0688019 0.32353073 0.0644592 0.04698993 0.22158077 0.05774761 0.12950778 0.1054104 0.19895428 0.23730187 -0.32785887 -0.258713 -0.13411307 -0.23053494 -0.099240966 -0.104846105 0.046404995 -0.06506093 -0.032528732 -0.08881076 0.4556869 -0.014412454 -0.017561652 0.37458587 -0.102040865 -0.022535222 0.012997089 0.12184523 0.072849944 0.12025384 0.040057153 -0.01306022 0.1707131 0.237739 -0.03704449 -0.16906667 -0.13656159 -0.30177465 -0.104452066 -0.071173914 -0.00478918 -0.104781196 -0.012309991 0.16035229 -0.014102129 -0.110509686 -0.22450571 0.073839195 -0.01305495 -0.27030307 -0.03360963 0.086631544 0.08312563 0.009908634 0.059491917 0.040312313
tanıdığıma:0.18516955 -0.07746694 0.07446729 -0.41509694 0.27017105 0.16466117 -0.10217648 -0.111826986 -0.011157721 0.06604061 0.0031826089 -0.07584396 0.08354347 -0.056442704 -0.2404503 0.0477118 -0.032041617 -0.005755505 0.037478443 0.20513025 0.09400332 0.21099594 -0.1638271 0.18934885 -0.013966207 -0.011549775 -0.17211854 0.10630452 0.07174297 -0.11323903 -0.18406208 -0.2859454 -0.06098225 -0.083734125 0.047551885 -0.10544872 -0.09122508 -0.07380114 0.03989785 0.0061360598 -0.06778094 -0.091511935 -0.09130345 -0.17279215 -0.026146334 0.08865183 0.35415545 0.22854295 0.029586228 -0.1141719 0.058729157 -0.0042503625 0.026730279 -0.20780155 -0.148048 -0.17907022 -0.016104205 0.09841423 0.009860277 0.38830018 0.18695356 -0.053841434 0.043371372 -0.034510203 -0.14674722 0.21988502 -0.21595208 0.17893545 0.00041710612 -0.026438445 0.089656614 0.08130119 -0.113439314 -0.18840379 -0.3268319 0.5182346 0.13983569 -0.0031734328 0.11875015 0.113154136 0.16878279 0.27325726 -0.13797413 0.2166968 -0.014445748 -0.09923601 -0.24431019 -0.035661712 0.22056618 0.12936139 0.027111769 0.038919453 -0.053329136 -0.036210902 -0.08886672 -0.23875298 0.3791722 0.20529526 0.038120322 -0.2613381 -0.005942577 0.0632981 0.07640053 -0.059131432 -0.22056684 -0.09789144 0.11555539 0.11453529 0.07346057 0.0019543304 0.4184373 0.029421756 -0.101472534 -0.13458711 -0.0027243067 -0.079117715 0.21060458 -0.1204898 0.07124808 0.17549363 0.14428872 -0.13154072 -0.053835485 0.13107847 0.2727485 0.020856412 -0.11095032 0.011462032 0.0058678538 0.11939018 -0.1309678 0.15894741 -0.1881769 0.29430792 -0.16226527 -0.10056641 -0.22966759 -0.20389783 -0.182772 -0.02419341 -0.15185422 -0.07615006 -0.07032696 -0.18226208 -0.1527158 0.095532976 0.10812749 -0.031007463 -0.09013583 -0.47553232 0.096948914 -0.11738266 0.17420737 0.41966957 -0.017559411 -0.14662984 0.21149161 -0.21067625 -0.3193899 -0.2305556 -0.16302317 -0.11823828 -0.2161927 0.2488954 -0.064025335 0.103583835 0.022255331 0.13295525 0.09199595 -0.23583709 -0.05566911 0.0020019913 -0.01762899 -0.067134134 0.067666516 0.17537846 -0.049202368 0.100634605 0.17072898 0.14280707 0.016471019 -0.026868314 -0.01850516 -0.21417013 -0.19580424 0.015382791 0.26781365 0.060981117 -0.02420596 -0.09524899 -0.10885132 0.35799232 -0.2145993 -0.4776587 0.035745557 0.08633132 0.04402596 -0.2645318 -0.044708103 -0.07342095
tıkla:0.19210221 -0.35438144 -0.1066881 0.07805871 0.09786765 -0.08539752 0.31735379 0.049484245 0.20895582 -0.09169406 0.08479389 0.21239895 -0.0008204198 -0.21242563 -0.11724234 0.12214582 0.10378542 -0.018010499 -0.38326478 0.013333455 -0.05354285 0.22035488 -0.13875791 -0.1478451 0.0437468 0.13122417 -0.17270993 0.29871854 -0.012974879 -0.19907293 -0.020690741 -0.30225614 -0.03721187 -0.03160403 0.039732657 0.21150854 -0.18643153 0.006275981 0.15245461 0.0793701 0.095800474 -0.11688343 0.004049521 -0.017700844 0.17545527 0.045040756 0.40139025 -0.07890442 0.089423686 -0.07112649 -0.14943396 -0.10477063 0.047880717 -0.006745102 0.17496265 -0.35627607 0.20681953 -0.009133736 0.3429468 -0.11365597 0.03301441 -0.20069583 0.11963598 -0.09132596 -0.27264455 0.042527333 -0.07061964 0.18309243 -0.053868294 -0.044722177 0.08963178 0.06951119 0.046072997 0.09520963 0.26282698 0.13551573 -0.075806014 -0.24492683 0.12053376 0.094500415 -0.0007277388 0.22757158 -0.17626579 0.00940739 0.017997863 0.030648785 0.052374836 -0.0017956124 -0.04321991 -0.114994735 0.16859044 -0.08363916 -0.028784595 -0.15860449 0.08233404 -0.025927393 -0.20546849 0.09799816 0.25429127 -0.007888312 0.023977121 -0.22901744 -0.20299916 -0.08557927 0.13737941 -0.1517983 -0.0018654898 0.3947003 -0.03025556 -0.044622716 0.1304242 0.068066366 0.009907869 -0.054099318 -0.06419044 -0.14419323 0.18971018 0.14602403 -0.13461621 -0.34213328 0.049548883 -0.018865999 -0.045445055 0.27755377 -0.0142789725 -0.0804014 0.008444555 0.018844042 -0.1671736 0.19227928 0.050273675 -0.13185269 -0.09988567 -0.037079304 -0.19507279 0.068776116 0.05974467 0.030545512 0.1112395 0.06713212 -0.049283642 -0.23758668 0.13203053 0.007444272 0.047063366 0.076255254 0.069076926 -0.009126152 0.20583032 -0.01825339 0.002643828 0.36348835 -0.1471643 -0.0632614 0.06570301 0.15276074 -0.37155122 -0.038416255 -0.124440975 0.23545714 -0.06983899 -0.13846001 0.034880184 -0.03183017 0.15819074 -0.241068 0.02390947 -0.064687416 -0.15073094 -0.2497119 -0.0017747995 0.0449316 -0.027721733 -0.11679758 -0.06127359 -0.009926671 0.11995694 0.276093 -0.16684535 0.09203902 0.20228924 -0.3150745 0.04631914 0.027478347 0.08390834 0.12114378 -0.18754312 -0.13440457 -0.029087812 -0.28488028 -0.08642621 0.18466073 -0.11264754 0.025352342 0.06270887 -0.14810038 -0.040650085 -0.06786055 0.07811744 0.08499192
senin:0.06888011 0.018181112 0.23740903 -0.11026229 0.12933221 0.14780252 0.04275225 -0.087119274 0.024959017 0.020416869 0.24909274 0.16173409 0.054803073 0.05755032 -0.1460858 0.15977299 0.013108926 0.19958787 -0.15565977 -0.090271376 -0.0018719061 0.41440147 -0.111150846 0.04372783 -0.15232731 0.04504961 0.031845376 -0.1047045 -0.014988789 -0.13832456 -0.19764848 -0.33895233 -0.003953737 0.05915239 -0.01340001 -0.18440096 0.19724342 -0.029721085 -0.061982516 -0.17802002 0.044690162 -0.21804313 -0.0148113705 0.0741477 0.2521146 0.08846642 0.10678653 -0.027928036 0.12695056 -0.040429376 0.28542817 -0.11098042 -0.10226924 -0.29085743 -0.0801836 -0.2313489 -0.04983708 0.21826407 0.14545026 0.10570407 0.17655484 -0.02860562 0.2038021 -0.052408118 -0.3386457 0.1629341 -0.10367429 0.45650867 -0.07109129 -0.05249921 -0.061147228 0.057935268 -0.021888323 -0.20245633 0.116877355 0.34545514 0.12442084 -0.028315337 -0.04277179 0.28763363 0.015515855 0.25779396 -0.0066830846 0.17766245 -0.013735293 0.00699538 -0.18577787 -0.07082668 -0.016964426 0.07395496 -0.13016093 0.08224363 -0.1786033 -0.053178124 -0.14307062 -0.0504888 0.14073071 0.18273692 -0.067427196 -0.24745709 0.22984138 0.03252039 0.11814601 0.022420654 -0.27302277 -0.22949651 -0.014241864 0.19305542 -0.050728627 -0.0013262791 -0.0014024713 0.14036064 -0.0047231526 -0.010654084 0.17367202 0.13085161 -0.02722991 -0.2736259 0.23119347 0.017771853 -0.050643217 -0.13898881 0.09312027 -0.23082612 0.11081697 -0.18277137 0.22211114 -0.16836369 0.10936727 0.05837997 0.24916331 0.24218015 0.11903347 0.15204313 -0.0040350487 -0.1639519 -0.38843262 -0.009924638 0.10770712 0.25465697 0.025161393 0.053683825 0.14248012 0.02272275 0.07552127 0.16405003 0.15487894 0.1365594 0.034708735 -0.13054326 0.006722056 0.0399625 -0.077421516 0.33251595 -0.0071445005 -0.023910617 0.19025008 -0.12585813 -0.2669822 -0.2584632 -0.331928 0.12431566 -0.07533774 -0.29296246 0.020609913 -0.023516688 -0.05129624 0.16058853 -0.06284245 -0.20612432 -0.12212759 0.2644733 -0.026373032 -0.033377312 -0.04947019 0.09420978 -0.21237749 0.17374282 -0.014877871 0.095757976 0.01919828 -0.029358556 0.10202423 0.032011632 0.15588403 -0.061447773 0.14888825 -0.11772173 -0.038725957 -0.026133751 -0.25172997 0.01316797 -0.091728844 -0.10750876 0.01460191 0.08436221 0.013294023 0.085486874 -0.05964814 0.15021275
sonunda:0.15556873 -0.24925266 -0.018639658 -0.08308037 0.028464667 0.24791624 0.06585477 -0.03056063 -0.1577747 0.06936778 0.18450953 -0.15259749 -0.27311328 0.12678313 0.10233434 -0.11042276 -0.06733893 0.12655683 -0.005992352 -0.14830178 -0.17167833 0.043412067 -0.036603834 -0.031138182 0.15751247 0.15954107 -0.007761061 -0.078261174 0.19100794 -0.14654106 -0.14694238 -0.08996101 0.08534177 0.030473085 -0.25231645 0.054417804 0.16472752 0.13027778 0.16171862 -0.09388177 0.021977326 -0.013685617 0.06887227 -0.015412494 -0.0067195036 -0.047569066 0.011507939 -0.20220788 0.08397142 -0.078390606 0.0054031936 0.019751126 -0.00804285 -0.05351492 -0.08015531 -0.09303558 -0.14168899 0.12023372 -0.0014845054 -0.030631496 -0.120338924 -0.1336707 -0.042719074 -0.0231499 0.15164256 -0.08080841 -0.008398188 0.14573835 0.28558728 0.045861088 0.07291714 0.2292692 0.15675305 -0.18937679 -0.14883122 0.117896356 0.048115093 -0.008105633 -0.057226375 -0.117676795 0.21505512 0.20632179 -0.065977246 -0.088781856 0.06100962 0.18458365 0.02778415 0.10211149 0.0014090636 0.03232307 0.06570881 -0.047756642 0.17427203 0.06402845 -0.033506338 -0.06851785 -0.0048985956 0.17993881 0.12686302 0.065826066 -0.07655974 0.040703528 0.12105331 0.10995221 0.080473974 0.044264935 -0.20456356 0.076436 -0.2189249 -0.14022501 -0.086489595 0.21349774 -0.105734885 -0.080493614 -0.20060974 0.077970274 0.03300503 0.15108708 -0.034338236 -0.016654538 -0.11082317 -0.063208744 0.12854448 -0.13080636 0.108549 -0.22689448 0.09175186 0.012364563 -0.023004372 0.032630358 0.022690568 -0.053863283 -0.091230825 0.073716015 0.12134886 0.22288576 0.15812844 -0.10376852 -0.0009339296 0.03019331 -0.059372336 0.2094303 -0.029742917 -0.14613365 0.12826031 0.055517424 -0.18175118 0.025280213 0.013697308 -0.07614875 0.30729422 0.029127447 -0.050388925 -0.10607053 0.20194222 -0.038798332 0.10796712 0.008710659 0.006913539 0.063459076 0.16074453 -0.018900841 -0.006766882 0.064061046 0.26341057 0.34120432 -0.08924625 0.099664815 -0.07166051 -0.036008675 0.1609508 0.054281034 -0.068100534 -0.07638158 0.022507025 0.20853321 0.0066476017 0.04540266 0.24368097 0.045860462 -0.07369408 -0.07704332 -0.14432167 -0.112364195 -0.010219656 -0.11859009 -0.08027238 0.088374704 0.012700504 -0.2191442 -0.02735318 -0.14556985 0.086663574 -0.10278589 -0.15074873 -0.015602396 0.032914057 0.07135529 -0.036706526 -0.08655245
sevgiyle:-0.0004739165 -0.056522753 0.047502026 -0.40815282 0.022702044 0.44467804 -0.22124952 -0.114631355 0.034669485 0.22939135 -0.15562198 0.032281477 -0.083958425 0.16667055 -0.2263478 -0.29631546 0.0760609 -0.14756429 -0.033627134 -0.043197233 -0.0041685468 0.67724556 0.11740746 0.2628599 -0.521892 -0.029120527 0.11827433 0.21244743 -0.19360085 -0.032297105 0.07984385 -0.03201899 0.31716213 0.092534326 -0.3402903 -0.22002147 -0.091125235 -0.09794778 0.37669745 0.15801151 0.24763693 0.10353544 -0.038197596 0.175318 0.11649406 0.14897744 0.5137184 -0.050049677 0.1493668 0.3519426 0.39798692 0.02237674 0.22002853 -0.31548804 -0.5367067 0.13670188 -0.011338492 0.12607697 0.10879283 0.64502853 -0.033808585 -0.0833666 0.022617716 -0.1936572 -0.0027418095 0.19899125 0.22750065 0.3312108 0.09629366 -0.122671984 -0.107433476 0.08648803 0.30768687 -0.0944889 0.25612292 -0.02443729 -0.1430575 0.10247328 -0.12552418 0.32752335 0.14567792 0.7066317 -0.32510912 0.25364244 0.031379677 0.14656743 -0.09868847 0.014362228 0.080060594 0.31020594 -0.09466968 -0.0010184787 -0.01326299 0.6081284 0.31415993 0.540773 0.08076399 0.2422972 -0.32423222 -0.34088022 0.47598076 0.037539534 -0.22508618 0.049083542 0.16082256 0.15539658 -0.14175054 0.18285288 0.36890477 0.0068176906 0.49149594 0.57779145 -0.35115746 -0.54105735 0.08385989 -0.16007097 -0.03605337 -0.2949985 0.32303736 0.02822713 0.19317171 0.25649208 0.022041481 -0.36173362 0.44095573 -0.005773823 0.12464614 -0.22485879 0.5768767 0.26373667 -0.022338098 0.23946838 -0.33960605 -0.072797716 -0.23972575 -0.0899869 -0.1977179 0.007585268 -0.47737074 0.10706653 -0.06014306 -0.20892829 -0.057985332 -0.1250848 0.18242283 -0.017177952 0.72734463 -0.4363021 0.19679573 0.11760112 -0.061275072 0.24707764 -0.43762583 0.12264092 0.0726265 0.009251716 -0.48053482 -0.19365862 -0.48418683 0.040905625 -0.13570862 -0.17072618 0.031551402 -0.0193289 0.060997594 0.04503333 0.41086695 0.1337497 0.03265245 -0.32079205 0.027550776 0.06775718 0.077497214 0.1745393 -0.22102228 0.1582375 -0.21336696 0.09627068 0.018329866 -0.5141794 0.09103725 0.37202588 0.23852246 0.0012346249 -0.14146167 -0.2259355 0.20999487 -0.3834781 -0.22547129 0.03661131 -0.15573311 0.38514978 0.33050153 -0.41269454 0.1211318 -0.041804407 -0.20380408 -0.123334765 0.37625304 0.18315025
hassasiyetle:-0.1241863 0.33708197 -0.051836614 -0.06954836 -0.23602559 0.31595197 -0.02820604 -0.2040453 -0.23108442 0.13384926 -0.28067988 0.36377954 -0.239653 0.03467563 0.07657271 0.1953018 0.036086045 -0.15782791 0.4266858 -0.12608817 -0.3558311 -0.019704094 0.22563416 0.047087703 0.17350318 0.19073693 -0.13799645 0.20642057 -0.37320256 -0.1267728 0.09850269 0.013100483 0.12066373 -0.017157901 0.02233757 0.080285735 -0.093818724 -0.04116158 0.16349912 0.25950262 0.33136138 0.1459494 0.13574146 0.31825706 -0.12943724 0.1480847 -0.073084384 0.15167843 0.40118012 0.22357705 -0.50515336 -0.15201402 0.15148959 0.06459405 -0.44263795 0.13673574 -0.18646172 -0.27278665 0.08085546 0.35784167 0.08124274 -0.030836932 -0.09760862 0.3213104 0.10117447 0.1425315 -0.021682503 0.3974751 -0.2117093 -0.1144556 0.084473014 0.22715175 -0.2621199 -0.347184 0.33311728 0.026409414 0.14975268 0.3626649 -0.04016838 0.005922984 -0.32833812 0.08336433 -0.0075653424 -0.37040016 -0.23009674 -0.11243845 0.030230984 -0.19027409 0.022357598 -0.18313324 0.15435477 -0.042328067 -0.09704836 0.33130085 0.03849445 0.18310976 -0.20969827 0.0049915016 -0.10719593 0.26247087 0.0014153894 0.21215609 0.36647683 -0.091451325 -0.20725696 0.015917517 -0.06285708 -0.20636085 -0.22017334 -0.17383587 0.11075031 0.2046004 -0.23104638 0.08530186 0.20290594 -0.045169428 0.04542071 0.05323052 0.1255642 -0.2509839 -0.20898318 -0.004742979 0.12455081 -0.15368597 0.39408937 0.25560087 -0.018752687 -0.7180467 0.005584654 -0.11551209 0.28760234 0.30758113 0.14794491 -0.06951138 -0.059262313 0.22855173 0.30860722 0.20246974 -0.15439588 -0.09488294 0.12538876 0.08089892 -0.03786276 0.04485033 -0.21271113 -0.07599492 -0.01928897 -0.22817017 -0.039945763 -0.11418571 -0.42617753 -0.120989755 0.263455 0.0884883 -0.23086199 0.17262855 -0.03531509 0.1183765 0.10455732 -0.23393615 0.21085396 0.24719079 0.17869249 -0.19545408 0.055148475 -0.020504957 0.13454582 -0.054983106 0.10753246 0.14413269 -0.34530246 0.31612208 0.0064011393 0.16398305 -0.23856431 -0.23757136 -0.059654284 0.14854461 0.034467977 -0.040766202 0.31148443 -0.14207052 -0.04379322 -0.30795908 -0.30195802 -0.44220835 -0.10833433 -0.26447502 0.12506597 -0.062156726 0.2462585 -0.02802922 0.0043565175 -0.14934313 -0.31436348 -0.05847108 -0.06981653 -0.25807464 -0.19292907 -0.061144173
